class,emb_0,emb_1,emb_2,emb_3,emb_4,emb_5,emb_6,emb_7,emb_8,emb_9,emb_10,emb_11,emb_12,emb_13,emb_14,emb_15,emb_16,emb_17,emb_18,emb_19,emb_20,emb_21,emb_22,emb_23,emb_24,emb_25,emb_26,emb_27,emb_28,emb_29,emb_30,emb_31,emb_32,emb_33,emb_34,emb_35,emb_36,emb_37,emb_38,emb_39,emb_40,emb_41,emb_42,emb_43,emb_44,emb_45,emb_46,emb_47,emb_48,emb_49,emb_50,emb_51,emb_52,emb_53,emb_54,emb_55,emb_56,emb_57,emb_58,emb_59,emb_60,emb_61,emb_62,emb_63,emb_64,emb_65,emb_66,emb_67,emb_68,emb_69,emb_70,emb_71,emb_72,emb_73,emb_74,emb_75,emb_76,emb_77,emb_78,emb_79,emb_80,emb_81,emb_82,emb_83,emb_84,emb_85,emb_86,emb_87,emb_88,emb_89,emb_90,emb_91,emb_92,emb_93,emb_94,emb_95,emb_96,emb_97,emb_98,emb_99,emb_100,emb_101,emb_102,emb_103,emb_104,emb_105,emb_106,emb_107,emb_108,emb_109,emb_110,emb_111,emb_112,emb_113,emb_114,emb_115,emb_116,emb_117,emb_118,emb_119,emb_120,emb_121,emb_122,emb_123,emb_124,emb_125,emb_126,emb_127,emb_128,emb_129,emb_130,emb_131,emb_132,emb_133,emb_134,emb_135,emb_136,emb_137,emb_138,emb_139,emb_140,emb_141,emb_142,emb_143,emb_144,emb_145,emb_146,emb_147,emb_148,emb_149,emb_150,emb_151,emb_152,emb_153,emb_154,emb_155,emb_156,emb_157,emb_158,emb_159,emb_160,emb_161,emb_162,emb_163,emb_164,emb_165,emb_166,emb_167,emb_168,emb_169,emb_170,emb_171,emb_172,emb_173,emb_174,emb_175,emb_176,emb_177,emb_178,emb_179,emb_180,emb_181,emb_182,emb_183,emb_184,emb_185,emb_186,emb_187,emb_188,emb_189,emb_190,emb_191,emb_192,emb_193,emb_194,emb_195,emb_196,emb_197,emb_198,emb_199,emb_200,emb_201,emb_202,emb_203,emb_204,emb_205,emb_206,emb_207,emb_208,emb_209,emb_210,emb_211,emb_212,emb_213,emb_214,emb_215,emb_216,emb_217,emb_218,emb_219,emb_220,emb_221,emb_222,emb_223,emb_224,emb_225,emb_226,emb_227,emb_228,emb_229,emb_230,emb_231,emb_232,emb_233,emb_234,emb_235,emb_236,emb_237,emb_238,emb_239,emb_240,emb_241,emb_242,emb_243,emb_244,emb_245,emb_246,emb_247,emb_248,emb_249,emb_250,emb_251,emb_252,emb_253,emb_254,emb_255,emb_256,emb_257,emb_258,emb_259,emb_260,emb_261,emb_262,emb_263,emb_264,emb_265,emb_266,emb_267,emb_268,emb_269,emb_270,emb_271,emb_272,emb_273,emb_274,emb_275,emb_276,emb_277,emb_278,emb_279,emb_280,emb_281,emb_282,emb_283,emb_284,emb_285,emb_286,emb_287,emb_288,emb_289,emb_290,emb_291,emb_292,emb_293,emb_294,emb_295,emb_296,emb_297,emb_298,emb_299,emb_300,emb_301,emb_302,emb_303,emb_304,emb_305,emb_306,emb_307,emb_308,emb_309,emb_310,emb_311,emb_312,emb_313,emb_314,emb_315,emb_316,emb_317,emb_318,emb_319,emb_320,emb_321,emb_322,emb_323,emb_324,emb_325,emb_326,emb_327,emb_328,emb_329,emb_330,emb_331,emb_332,emb_333,emb_334,emb_335,emb_336,emb_337,emb_338,emb_339,emb_340,emb_341,emb_342,emb_343,emb_344,emb_345,emb_346,emb_347,emb_348,emb_349,emb_350,emb_351,emb_352,emb_353,emb_354,emb_355,emb_356,emb_357,emb_358,emb_359,emb_360,emb_361,emb_362,emb_363,emb_364,emb_365,emb_366,emb_367,emb_368,emb_369,emb_370,emb_371,emb_372,emb_373,emb_374,emb_375,emb_376,emb_377,emb_378,emb_379,emb_380,emb_381,emb_382,emb_383,emb_384,emb_385,emb_386,emb_387,emb_388,emb_389,emb_390,emb_391,emb_392,emb_393,emb_394,emb_395,emb_396,emb_397,emb_398,emb_399,emb_400,emb_401,emb_402,emb_403,emb_404,emb_405,emb_406,emb_407,emb_408,emb_409,emb_410,emb_411,emb_412,emb_413,emb_414,emb_415,emb_416,emb_417,emb_418,emb_419,emb_420,emb_421,emb_422,emb_423,emb_424,emb_425,emb_426,emb_427,emb_428,emb_429,emb_430,emb_431,emb_432,emb_433,emb_434,emb_435,emb_436,emb_437,emb_438,emb_439,emb_440,emb_441,emb_442,emb_443,emb_444,emb_445,emb_446,emb_447,emb_448,emb_449,emb_450,emb_451,emb_452,emb_453,emb_454,emb_455,emb_456,emb_457,emb_458,emb_459,emb_460,emb_461,emb_462,emb_463,emb_464,emb_465,emb_466,emb_467,emb_468,emb_469,emb_470,emb_471,emb_472,emb_473,emb_474,emb_475,emb_476,emb_477,emb_478,emb_479,emb_480,emb_481,emb_482,emb_483,emb_484,emb_485,emb_486,emb_487,emb_488,emb_489,emb_490,emb_491,emb_492,emb_493,emb_494,emb_495,emb_496,emb_497,emb_498,emb_499,emb_500,emb_501,emb_502,emb_503,emb_504,emb_505,emb_506,emb_507,emb_508,emb_509,emb_510,emb_511
ambulance,-0.46747807,0.98097193,-0.9903419,-0.75804836,0.9966034,-0.7861815,0.015075017,0.94744486,0.587628,0.7452029,0.6256787,0.99341846,-0.9997446,0.3694511,0.80120903,-0.9212181,0.9388506,0.37088528,-0.9966616,-0.47358325,0.51137316,0.69061136,0.78618664,0.86365455,0.61290675,-0.93007576,0.33823314,0.8598348,0.7274859,-0.9218672,0.12233984,-0.9002861,-0.9908344,0.82948637,0.25535905,-0.9997624,-0.37643346,0.08443241,-0.9965487,0.8962349,-0.7861428,-0.8901503,-0.576409,-0.77275354,-0.8863713,0.97338426,-0.20038076,-0.9084332,0.67213947,-0.99791884,-0.6315478,-0.9931308,-0.52040505,0.9237636,0.87033886,-0.90705746,-0.7170607,0.21377037,0.98223954,-0.99286073,-0.76779217,-0.04696549,0.98322445,-0.99280626,-0.92547274,-0.9921402,0.9993243,-0.6814482,0.532474,-0.99437535,-0.40568033,-0.89559335,-0.07041157,0.25174493,0.62785965,-0.63245094,0.9091552,0.7933824,-0.5782884,0.9938053,0.6917974,0.5386877,0.62245476,0.35064515,0.9037744,0.9998784,0.47945687,0.92151767,0.15754831,-0.99996763,0.41742483,-0.52713925,0.93815035,-0.99252456,-0.53370637,0.7844114,-0.5165563,0.1674684,-0.523264,0.83688474,-0.7644871,0.900925,0.9999367,-0.12349994,-0.33488014,0.8418009,0.9990124,-0.99484366,0.08639244,0.3778907,0.99331385,0.9684062,0.04674174,0.98898655,0.1338311,0.9566858,-0.5423401,-0.7868363,-0.5825529,-0.70348144,-0.22608024,-0.97176254,-0.41583428,-0.66235685,0.50060254,0.73807067,0.782288,-0.2812528,0.64805335,0.85783494,0.70366114,-0.96241015,-0.5979086,-0.82911074,0.9954169,-0.98740125,-0.9952465,0.6364942,-0.79209834,-0.64209044,0.5862179,-0.957103,0.9923937,-0.89586914,-0.7067756,0.99458236,-0.877876,0.8054873,-0.26128978,0.99194646,-0.6466718,0.6906746,-0.9994576,0.9062925,0.941387,0.9479395,-0.87304187,-0.95357877,0.96136856,0.92273545,0.74957365,0.963498,0.9308019,0.9866155,0.8966981,-0.2999901,0.42064443,-0.93159205,-0.9064919,-0.9801143,0.48370683,-0.9999398,-0.995241,-0.9974514,0.83672744,0.9466791,-0.9997821,0.6345534,-0.70535016,0.703131,0.6975057,-0.93209445,0.60805774,0.62963754,-0.86652005,0.9831041,-0.99978364,0.96325725,-0.7207601,-0.16979456,0.95966953,0.8083523,-0.9409633,0.9985608,0.49121502,0.44071367,-0.9999295,-0.9960855,0.22239967,0.91795015,0.8788763,0.75196785,-0.09696371,0.47496212,0.043987747,-0.559247,0.6215579,0.5381163,-0.98571855,-0.25173104,-0.5331662,-0.66130865,-0.9756867,-0.95713484,0.87165874,-0.88590676,-0.2724834,0.46414897,0.7282667,0.78713465,0.9866941,-0.9978959,-0.04137175,0.6568752,-0.29274437,-0.49079287,0.9891975,0.090032384,-0.5414357,0.9996993,0.12046689,0.23982629,0.9124552,0.9861353,-0.9858927,0.9920242,-0.9743137,0.8425261,0.9912861,-0.76800007,0.73173165,0.99967957,0.9630291,0.9238866,0.7879671,0.76544404,0.8774404,0.9948033,0.6696679,-0.06445399,0.93678784,0.97970754,0.5292888,-0.88944083,0.13105863,0.69925416,0.18785152,-0.6725572,-0.48031926,0.9496,-0.68403673,-0.8461566,-0.99627113,-0.42576608,-0.022668706,-0.2984992,0.70382583,-0.9689432,-0.8602725,-0.8762468,0.13188663,0.85677797,0.57656497,-0.6385723,-0.68049026,0.9340608,0.9989894,0.02262889,-0.84581274,-0.47864476,-0.04163733,0.9935536,-0.9992334,0.82603997,0.023719134,-0.31659907,-0.8817677,0.61237276,-0.8836732,0.7882373,0.68020326,0.44192994,-0.81301737,0.87750286,-0.6251967,0.99053246,0.44741407,-0.8336983,0.9979595,0.9917159,0.6348164,-0.9964059,0.8614831,0.8793488,0.61616695,0.17029917,0.976011,0.26218224,-0.9883336,0.9802652,0.98157626,-0.026056886,-0.26650286,-0.25411466,0.32297707,0.66367733,-0.99142313,-0.9999523,-0.58248574,-0.48112917,0.99899644,-0.040494695,0.9790303,-0.91624105,0.38327014,0.73671126,0.59705096,0.97493726,0.99902976,-0.44049716,-0.9479733,0.6387296,-0.14492875,-0.51450026,-0.99167943,-0.07933078,0.9534951,-0.64698446,0.6987931,0.8599793,-0.6764722,-0.98762095,0.58986825,-0.9862143,0.489793,0.9322697,-0.10562349,-0.8523325,0.33565137,-0.036407016,0.99839675,-0.99998766,-0.97762597,0.98493576,-0.9977713,0.9108767,-0.20473331,0.98738384,0.8293405,-0.9425464,-0.92903566,-0.8578852,-0.8236164,-0.48916405,-0.42964238,0.9982378,-0.04475672,-0.15796517,0.087981604,-0.12271729,-0.9952894,0.9863087,0.9958506,0.3506056,-0.068443894,-0.9336322,-0.9122276,-0.9748012,-0.94323087,-0.31079677,0.85100734,-0.7576749,-0.85250056,-0.03246444,-0.9755469,0.91118485,-0.83557045,0.99869674,-0.021619812,0.7967677,0.90958256,0.5383454,0.9905117,0.2022074,0.016295595,0.3987127,0.98727983,-0.445742,-0.9647383,0.25887594,-0.88738424,-0.96761197,-0.64744407,-0.16642234,0.41868037,-0.9995361,-0.093245804,0.26296625,-0.9285176,-0.531081,-0.3247158,0.6374446,-0.16721539,-0.9996024,0.9705881,0.984244,-0.35637957,0.6652806,0.33755618,0.9805965,-0.3628452,-0.9908286,0.68566614,-0.13797407,-0.76265436,-0.5131019,-0.99999917,0.815558,-0.4600245,0.83471423,-0.9988328,0.79813474,-0.5042668,0.40510163,-0.41595522,0.76320755,-0.24562383,0.5059717,-0.42238823,0.26972952,-0.908151,-0.9195508,-0.11786444,0.8701436,0.9203589,-0.5646715,0.9604085,0.8658729,0.9771753,-0.9974467,-0.43608266,-0.9999041,-0.9988571,-0.47527093,-0.97716546,0.06897756,0.32422462,0.6145245,0.68486845,-0.96778375,-0.9697902,0.95294404,0.7422091,0.8583908,-0.90397227,-0.917951,-0.45245758,0.8694588,0.99634343,0.8970275,-0.5163598,0.5651897,0.9381047,-0.7185285,0.9932358,0.82377344,-0.29951978,0.86585724,-0.026573576,0.8490696,-0.039001144,-0.9732013,0.40019497,0.9216151,0.7491878,-0.6569208,-0.995685,-0.9977684,0.9999834,0.9450536,0.49456614,0.9921745,-0.9975654,0.86701137,-0.9573465,-0.69384307,-0.7555449,0.875317,0.9967467,-0.6422205,-0.7605481,0.9323462,0.4897138,-0.89548993,0.9668387,0.6864541,0.6571704,-0.0046214424,-0.99973917,-0.24701355,0.9232811,0.36177418
ambulance,-0.4417249,0.7558081,-0.9362587,-0.1368664,0.9979393,0.015358133,-0.7136661,0.95346576,-0.19956094,-0.8609785,0.50437826,0.9898855,-0.9999997,-0.43313134,0.99826026,0.15378071,-0.5361935,-0.7700786,-0.87483966,-0.9310897,-0.8943427,-0.53775495,-0.47683358,0.79525906,0.7206053,-0.82275975,0.46862307,0.998544,0.89819086,-0.98966134,0.719334,0.5176968,-0.8468686,-0.45869228,-0.017528035,-0.9999237,0.050266977,-0.8336299,-0.95978856,0.7040528,0.42603695,-0.9661483,-0.9944978,0.65328145,0.60147935,0.9298179,0.54206294,-0.8294146,-0.44564173,-0.99604803,-0.957229,-0.9996367,-0.83077115,0.97318935,0.22272776,-0.70136046,-0.96214366,-0.9303286,0.99298227,-0.9342818,0.3396452,-0.61456966,0.9612614,-0.979674,-0.68600726,-0.93085444,0.9726079,-0.75851053,0.6162719,-0.9613062,-0.6205084,-0.95532966,-0.9564613,0.84083873,-0.52226967,0.78206265,-0.0049014217,0.20822933,-0.03010142,0.9625243,-0.24872772,0.9999768,0.92178226,0.24715598,0.33950365,0.98136425,0.7500928,0.87173676,-0.072260514,-0.99994653,0.8916106,0.99951684,0.92216575,-0.6875852,-0.4382025,-0.9277592,-0.9042761,-0.32854524,-0.89834934,0.15471405,-0.26380122,0.15607922,0.97871757,-0.9838107,-0.10892474,-0.6805579,0.98083836,-0.76049155,-0.9875974,0.996585,0.9851327,0.8800243,0.897936,0.98913556,-0.6063775,0.9746537,-0.88611877,-0.71027964,-0.60599315,-0.33586526,0.15800704,-0.35264117,-0.84773827,-0.9962568,0.38940603,-0.43552318,0.77291757,-0.9811405,-0.9937714,0.99657196,0.85850835,-0.99919546,-0.40497825,0.5613015,0.84691644,0.2684138,-0.7612328,0.923018,0.18766087,-0.113985464,0.41626108,-0.97731596,0.9106762,-0.9228191,-0.6651635,0.36536556,-0.97696847,0.78590155,-0.2076868,0.8640658,-0.95078367,-0.122001655,-0.649416,0.0022580659,-0.60526067,0.95141006,-0.81478524,-0.59341866,0.99657327,-0.5957684,0.9128882,0.9870824,0.73659885,-0.53792477,-0.2083151,-0.09376557,0.8055111,-0.657092,-0.7947592,-0.80918384,0.6666537,-0.99871707,-0.9998032,-0.99086285,0.9723013,0.86876893,-0.99999624,0.47154456,-0.9158075,0.3377941,-0.09462898,-0.07655256,0.64993554,0.6381485,-0.9995502,0.8204798,-0.9973176,0.97429645,-0.9964202,-0.5568911,0.9047094,-0.024997577,-0.7671496,0.8059319,0.626991,0.8124229,-0.9979656,0.035939686,0.9712647,0.8766544,0.8529991,0.94301,-0.5768271,0.17112973,0.84303695,-0.57860476,0.89876324,0.9088114,-0.99991816,-0.6903303,-0.7474954,0.68410254,-0.5112449,-0.91185397,-0.03903445,-0.9244464,-0.10881482,0.685601,0.78381425,-0.4434692,0.6808342,-0.9506879,-0.91832554,0.74108666,-0.5671925,-0.43132874,0.9999898,-0.0042415303,-0.7058182,0.9967782,0.91626394,-0.504824,0.9810895,0.99186885,-0.9390157,-0.4130685,-0.9895079,0.95295364,0.7318124,0.03147235,0.86851203,0.99909794,0.65302604,0.9493863,0.8741873,0.3869689,0.57341176,0.9791922,0.25329548,-0.26730603,0.7635969,0.47894323,0.7864823,-0.11241259,-0.59101886,0.50601345,-0.08187089,0.47502857,-0.66877496,0.9810634,-0.9391845,-0.61629194,-0.99238247,-0.5122589,-0.7237858,-0.43280795,-0.3180218,-0.8914433,-0.1776104,-0.7334183,-0.009834474,0.11038703,0.884582,-0.99988973,-0.95185554,0.7971802,0.9970923,0.4110771,-0.99352473,-0.17884548,0.20806843,0.9791848,-0.82493573,-0.26459157,0.06356302,0.9653248,-0.89761215,0.82854295,0.7721792,0.5614991,0.27646506,0.10795241,-0.9959076,0.774709,-0.97331476,0.62005717,-0.249951,0.07142161,0.94492966,0.98237956,0.46533862,-0.99822617,0.9983695,0.92893064,-0.90553427,-0.85294574,0.99647343,0.27507523,-0.7244251,0.6025346,0.9771185,0.005412525,0.5614047,-0.9456988,-0.79911995,0.68152803,-0.97926,-0.9938464,-0.891819,-0.5826765,0.84641236,-0.69192064,0.9028945,-0.88818383,0.3152454,0.9502558,0.44168735,-0.47640324,0.9920364,0.018487232,-0.99998814,-0.10803035,0.09146065,-0.720365,-0.9916545,0.42272326,0.9312227,-0.67806184,-0.6905395,0.9940474,0.4182443,-0.7300855,0.463958,-0.82147926,-0.83704174,0.9811566,-0.6275605,0.37427855,0.095511824,0.8227909,0.91408336,-0.9999995,-0.05829929,0.110604435,-0.8805234,0.8997057,-0.62453353,0.9958367,0.46433142,-0.4487459,-0.87268573,-0.6689842,0.86907965,-0.22456853,0.97969896,0.99952,-0.7264656,-0.4388905,-0.4776712,-0.82868856,-0.99492,0.9997045,0.9723977,-0.78074384,-0.66444534,-0.9335116,-0.99668014,-0.97822315,-0.99806124,-0.111215524,0.69529706,-0.611969,0.35668153,-0.72889537,-0.99787873,0.33040333,-0.40068284,0.94250804,-0.31065354,0.97870535,0.11876481,0.9875782,0.8969865,0.027613988,-0.9531553,0.9969469,0.995309,-0.11753042,0.30423614,0.73163205,-0.39866096,-0.99817604,-0.5463972,-0.7060814,0.9613638,-0.9894771,0.64978427,0.71083355,0.6047729,0.020820757,-0.7320167,0.4616424,0.29029867,-0.8376629,0.96411633,0.91886353,-0.9842191,0.23500139,0.9882759,0.9686465,-0.99283475,-0.7083867,-0.7517423,0.55176204,-0.15618648,-0.6248932,-0.9908114,-0.86520255,0.95254904,-0.18999045,-0.86435676,0.15711765,0.31931522,0.41714716,-0.42743167,0.97737557,0.43147048,0.98998517,-0.87181294,0.9449142,-0.99254954,-0.41470015,0.80905,0.9971407,0.25909618,-0.6106458,-0.7236619,-0.29041764,-0.7607763,-0.9445445,0.535272,-0.8347705,-0.9919281,-0.4690681,0.13696337,0.8937302,0.9978754,0.93187416,0.38168707,-0.94829625,-0.8010985,0.5685147,-0.33904418,-0.89041257,-0.42804646,-0.007578332,0.9979179,0.36203158,0.984677,0.995046,-0.9527348,0.91234475,0.78599054,-0.9445664,0.874998,0.8523837,-0.8896361,0.9772624,-0.4832037,0.8350701,-0.30870494,-0.9999648,-0.1625602,0.96026504,-0.26291013,-0.31861484,-0.99944115,-0.0876003,0.9902898,0.089544676,0.31212977,0.8307178,-0.9481931,0.6811821,0.4460664,-0.8125405,-0.99657387,-0.9516663,0.99973387,0.0348058,-0.99967855,0.7601815,-0.87495357,-0.7192558,-0.17747773,0.94169766,0.74395144,-0.5971551,-0.97895765,0.8348872,0.46747634,-0.27123502
ambulance,0.16423604,0.8658566,-0.9869639,-0.91256493,0.9882402,-0.2960133,-0.2194841,0.9572815,-0.1294902,-0.56986654,0.9481224,0.9999967,-1.0,-0.5597537,0.9996552,-0.94726646,0.9185967,-0.92556214,-0.87421453,-0.0436618,-0.31766662,0.97731787,-0.57387793,0.75861704,0.8338706,-0.99990493,0.39115995,0.9975596,0.7623749,-0.96641546,0.8303798,-0.8698059,-0.9972875,0.8810935,-0.10951745,-0.9999971,-0.7628876,-0.026957802,-0.9953157,0.9969844,-0.76621,-0.9989602,-0.9971487,0.17047325,-0.9682459,0.9865861,0.42100006,-0.99332535,0.105309874,-0.9999611,-0.5163228,-0.9975959,-0.98899245,0.79968596,0.9295879,-0.617356,-0.9789752,-0.50041306,0.964801,-0.99201775,-0.6128035,-0.45528218,0.9302997,-0.9991296,-0.76516485,-0.99239224,0.9742089,-0.90961397,0.7621404,-0.94295925,-0.9819531,-0.9562259,-0.74370956,0.8840407,-0.65627253,0.40103108,-0.079951145,0.735432,-0.85871196,0.99924153,0.82291657,0.99741983,0.75623536,0.25391462,0.98174995,0.99871707,-0.1348522,0.97917706,0.49897724,-0.9999986,0.9963556,0.8479735,0.8922397,-0.9917979,-0.64350486,0.72467995,0.29873824,0.5447005,-0.58064604,0.9760108,0.13704231,0.91518337,0.9943361,-0.99544334,-0.09893328,-0.4917676,0.99991536,-0.7869461,-0.53139544,-0.04620056,0.9972381,0.993484,0.44411165,0.9864848,0.1627544,0.5433191,-0.93945813,-0.99855125,0.94977146,-0.9027372,-0.9884767,-0.9881745,-0.6333731,-0.9989668,0.28788385,-0.6005925,0.40952942,-0.31576976,-0.83293086,0.84559727,0.94734275,-0.99820143,-0.7724696,-0.20369513,0.8927381,-0.8792321,-0.61589503,0.8443078,-0.9867315,-0.84187305,-0.6413657,-0.8701819,0.999519,-0.9493263,-0.73624986,0.49705082,-0.9968042,0.9847875,0.4171178,0.9480158,-0.91319287,-0.23279926,-0.9960513,-0.053234883,0.9909167,0.9620996,-0.9932561,-0.99847215,0.9998731,0.8364412,0.8461529,0.99736226,0.079185985,0.9993225,0.10629867,-0.8812588,0.9129433,-0.7235262,-0.6949495,-0.9920004,0.9290678,-0.99865144,-0.9972652,-0.99329317,-0.12352766,0.9718166,-1.0,-0.9071595,-0.85112107,-0.09358139,0.7097375,-0.6943348,-0.03816661,0.5167312,-0.9983014,0.97969353,-0.99925923,0.999608,-0.99029434,-0.10771054,0.882214,0.5280326,-0.99849236,0.99949074,-0.41874647,-0.049591403,-0.9999479,-0.9924981,0.34875593,0.9803984,0.97514004,0.93485606,-0.568422,0.8459755,0.8435507,-0.24550374,0.6061126,-0.60046905,-0.99983263,-0.25736552,-0.84458214,-0.93373734,-0.97877806,-0.78812796,0.7348202,-0.9861736,-0.1216752,0.89657277,0.8010593,0.904444,0.8772019,-0.99879724,-0.9946364,0.87799335,0.90748036,-0.99522203,0.99978906,-0.27582344,-0.81680006,0.98733354,0.7802064,-0.83572656,0.77793,0.9974783,-0.72838247,0.90850294,-0.99924326,0.9990556,0.99980336,-0.87958163,0.36012632,0.99999815,0.93196607,0.8200335,0.44446287,0.23617978,-0.89420533,0.99788356,0.7510018,0.47375938,0.9909608,0.60206664,0.9978198,-0.8243022,0.6310664,0.8754293,0.6996339,-0.66565526,-0.6900727,0.99895066,-0.9974359,0.011262372,-0.9986568,0.21667433,0.24671383,-0.77833253,0.9762116,-0.99877036,-0.59009856,-0.94619274,0.7623979,0.6934914,0.69867253,-0.9997887,-0.99879104,0.98882693,0.9991465,0.9298755,-0.9970458,-0.2671512,-0.8017245,0.99590254,-0.9754967,0.9349929,-0.91051936,0.83881706,-0.99734664,0.95158726,-0.10382748,0.9361209,0.62986124,0.8838941,-0.9998427,0.77518326,0.47050983,0.99859434,0.6185167,0.04941824,0.9985809,0.9999974,0.954594,-0.99990016,0.9993867,0.99932194,0.2945742,-0.83177936,0.8147415,-0.51196086,-0.9943765,0.86436874,0.98950857,-0.7365717,0.15227436,-0.94203377,-0.4866967,0.39700645,-0.9854064,-0.9999647,-0.9859285,0.105813146,0.9994668,-0.15320373,0.84667224,-0.8565433,-0.5403874,0.7529002,0.76819426,0.41162875,0.9994475,-0.45010033,-0.99971604,0.67675704,0.34287685,-0.08839682,-0.99973166,0.90658975,0.7851979,-0.4992443,0.40904793,0.95526177,0.36114126,-0.9989078,0.90213513,-0.99803376,-0.730823,0.89992493,0.1935245,0.10397973,0.47927135,0.8898884,0.9996957,-1.0,-0.992887,0.99812317,-0.9865859,-0.5311515,-0.44471705,0.99971217,0.37592453,-0.42622986,-0.9654584,-0.9141899,-0.66559875,-0.31450602,0.92801774,0.99999106,0.93173933,0.51338583,-0.936941,-0.63760394,-0.99997765,0.99040174,0.9992408,0.9667513,0.08176705,-0.9846664,-0.96892965,-0.52843356,-0.9912701,-0.41400206,0.9830276,-0.99956036,-0.428187,-0.6052622,-0.9988439,0.5315679,-0.88486814,0.9992886,-0.5480101,0.9096777,0.96103024,0.9980442,0.9026739,-0.016641786,-0.26024255,0.50963837,0.99986994,-0.37139478,-0.9945729,0.30488145,-0.98229504,-0.98963886,-0.8003792,-0.66847646,0.96191496,-0.980848,0.4652252,0.9198459,-0.8502191,0.13984473,-0.8668775,0.59851146,-0.44209173,-0.9976158,0.88591665,0.99955314,-0.98336375,0.43857548,0.96770865,0.999568,-0.9417824,-0.96253675,0.89475083,-0.44229075,-0.69503754,-0.82573694,-0.9998803,0.95344484,0.78711444,0.65705556,-0.99721634,-0.7759093,-0.3269266,-0.22707744,-0.2887238,0.80429715,0.1007701,0.49323437,-0.8597817,0.8542385,-0.9751376,-0.59060603,0.9644948,0.9863839,0.43446928,-0.70327693,0.73065865,0.98495555,0.5338053,-0.9768264,0.17701131,-0.99999964,-0.99996084,-0.8181476,-0.99823236,0.8313412,0.81951135,0.91899604,0.6344537,-0.99848497,-0.9726881,-0.4021975,0.53208613,0.36243185,-0.8894117,-0.9845474,0.41413313,0.9589886,0.98905605,0.9995265,-0.7915497,0.45500898,0.99301934,-0.97653735,0.9969409,0.95028335,-0.84270024,0.96123713,0.27001446,0.9019095,0.9945945,-0.99151313,-0.61986727,0.9994707,0.68133533,-0.71024066,-0.99991935,-0.99654883,0.9989943,0.7469142,0.15372977,0.99569005,-0.99960154,0.92350125,-0.14956822,-0.98496974,0.2994585,-0.66904444,0.99997485,0.40481248,-0.99759406,0.9970241,0.01823352,-0.86502284,0.99855304,-0.18082783,0.9957657,-0.8142196,-0.9999844,0.8546389,-0.41295838,0.42483112
ambulance,0.037711702,0.69810796,0.123207405,-0.23492613,0.98277277,-0.31203473,-0.9937832,0.86124647,-0.15219864,-0.6671975,0.64411086,0.9997749,-1.0,-0.7581288,0.99920064,0.7827246,-0.7683202,-0.8510183,-0.40079677,-0.38709444,-0.94671893,0.605554,-0.43170312,0.9413007,-0.6178577,-0.99772286,-0.18217018,0.99981767,-0.5315457,-0.9834996,-0.49456808,-0.16892195,-0.9695871,-0.21215236,-0.89194155,-0.9855265,-0.95056784,-0.26209944,0.19062784,0.9359592,0.72982854,-0.97713685,-0.9580369,0.7478773,-0.6357334,0.67505544,0.36389557,-0.94552255,0.045907505,-0.99686545,-0.97819334,-0.99623,-0.89221,0.8766215,0.1365464,0.40054628,-0.96334153,-0.11429471,0.73489785,-0.25436604,-0.88651466,0.105573736,0.72493947,-0.93705356,-0.6596635,-0.88144815,0.77364147,-0.7448026,0.9947447,-0.20456585,-0.7104094,-0.73515165,-0.69887245,0.9792887,-0.98577505,0.6811505,-0.86373603,0.25478315,0.78006864,0.99641407,0.023707869,0.99990505,0.79245883,-0.17407042,0.32452938,0.8660571,0.30674344,0.8499604,0.9290328,-0.9685945,0.906834,0.99995416,0.98962206,-0.9360986,-0.058183737,-0.5229797,-0.07087112,-0.057459317,0.16129287,0.9712529,0.65055674,0.74871635,-0.3817293,-0.9988217,0.17697603,-0.551837,0.960208,-0.5166381,-0.9998906,0.8380462,0.95246404,0.96378213,0.920275,0.0005901119,0.2958062,0.009576564,-0.40875468,-0.95676416,0.86460656,-0.05099044,-0.61369467,-0.72297937,-0.728922,-0.99036556,0.16005042,-0.7833772,0.52662003,-0.9195319,-0.99581087,0.26981914,0.31700215,-0.99918294,-0.9367292,0.20874417,0.9646971,0.878734,-0.0996532,0.9248219,-0.7210842,-0.16227245,-0.6194321,-0.8850748,0.97467315,-0.3126738,0.16785316,-0.9430918,-0.9341955,0.94649583,-0.56954384,0.90669274,-0.7573269,0.020056209,-0.31377262,-0.10920277,0.9888027,0.12708513,-0.8110179,-0.49779278,0.9988637,-0.78226715,0.08726003,0.93480897,0.6138952,0.92259765,-0.9209722,-0.24822442,0.8218725,0.6434048,0.79619753,-0.9115647,0.6129062,-0.6172935,-0.9995639,-0.5364364,0.5269177,0.80151474,-0.9999995,-0.9396011,-0.49845162,0.42722967,0.9847709,0.8716781,0.47767127,0.92578137,-0.9946865,0.20787105,-0.99972165,0.96906954,-0.9860941,-0.8315074,0.5083299,-0.69477785,-0.9564891,0.75888634,0.60564977,-0.5134683,-0.5631841,-0.91929704,0.73093015,0.9862798,0.61542255,0.7103097,-0.5636267,0.78199095,0.88253117,0.259297,0.81792396,0.22771485,-0.98877877,0.22519216,-0.073685534,-0.42092216,-0.9355173,-0.4071319,-0.96261096,-0.8955646,0.07722426,0.05906345,0.94910926,0.4143318,0.3227837,-0.9963707,-0.99087906,0.6327223,0.96370924,-0.8676734,0.99574465,0.14341938,-0.27289486,0.7728497,0.19052067,-0.185394,0.8527635,0.9977153,0.8079733,-0.8924584,-0.9445386,0.99843276,-0.14267734,-0.054781664,0.94557947,0.998828,0.46629333,0.77679735,-0.11214933,0.27981237,0.07790438,0.90587413,0.009051745,-0.71411353,-0.44325516,0.063886665,0.9979985,-0.352148,-0.43994573,0.2395529,0.86597306,0.93627006,0.7279942,0.9607879,-0.9741962,0.031536143,-0.73659694,-0.7069413,-0.8994539,-0.60043645,-0.34724745,-0.89714986,0.5208002,-0.48828778,0.742626,-0.96561986,-0.12174829,-0.9999453,-0.9936052,0.8514959,0.973012,0.54982185,-0.9999485,-0.21931326,0.3218665,0.9690751,0.13391432,-0.37102947,0.015138135,0.9886819,-0.98696876,0.4821777,0.6030426,-0.93167335,0.10875684,-0.6804991,-0.9999908,0.6906678,-0.99515903,-0.36383677,-0.671526,0.3767091,0.99908847,0.97036964,0.50990015,-0.99810463,0.9979148,0.99620324,-0.2980455,-0.5626462,0.7171986,0.316574,-0.81619936,-0.9342036,0.9610482,-0.1871074,0.39511687,-0.9927041,0.38101196,0.9644058,-0.3971065,-0.99102306,-0.32227358,0.41533214,0.6854185,0.23696764,0.95945483,-0.14265165,-0.94551927,0.9744326,0.6303372,-0.98278177,0.99875844,-0.13034704,-0.9999929,-0.010514034,0.43972716,-0.48863745,-0.9842805,0.81637216,0.1040444,-0.06662067,-0.9930305,0.99909514,0.68027943,-0.753485,-0.20311455,-0.6830537,-0.7052408,0.77699536,-0.98700833,-0.5253394,-0.13139656,0.811466,0.97630185,-0.9999982,-0.33808255,0.9746334,0.08541562,-0.91604567,-0.26955944,0.9982693,-0.43564495,-0.117503844,-0.33059236,-0.24080782,0.9457074,-0.47626716,0.7670631,0.9994127,0.9407946,-0.27080563,-0.98387736,-0.55406123,-0.9997086,0.8943823,0.7873525,0.13407771,-0.8513248,-0.06138758,-0.99315095,-0.97117066,-0.8074599,0.26390538,0.9328408,-0.9823684,-0.89682704,-0.97809243,-0.68978846,0.85646963,0.59072506,0.89822185,-0.18863246,0.7539135,0.97683877,0.9887753,0.04872297,0.06565769,-0.9342661,0.999395,0.99922395,-0.5751064,-0.042387422,0.6718216,-0.384301,-0.9829831,-0.5199183,-0.075983234,0.96540093,-0.31508997,0.699502,0.8593706,0.8193185,0.7282537,-0.50304544,0.5699445,-0.6329514,-0.9995492,0.20385702,0.9424585,-0.9983917,-0.30855155,0.991235,0.99964666,-0.9825471,0.6256847,-0.026743898,0.43944478,-0.22555363,-0.07852353,-0.7966795,-0.95804507,0.9817797,-0.92188,-0.36253762,-0.52398,0.7045705,0.042147264,-0.6758957,0.8424072,0.45589015,0.7453936,-0.7930552,-0.05470667,-0.36714345,-0.2562555,0.07546413,0.9950737,-0.82212865,-0.30460203,-0.64393723,-0.10650598,-0.5205286,-0.9059263,-0.8422412,-0.9994784,-0.86320806,-0.9541592,-0.8659618,0.58318806,0.9871375,0.70777035,-0.5728789,-0.8809197,-0.8122205,-0.9713915,-0.40733507,-0.98561424,-0.22435008,-0.13005486,0.5883702,0.39773992,0.35497707,0.9806501,-0.99702436,0.39043665,0.97209287,-0.7120817,0.7182135,0.860727,-0.39048102,0.75960445,-0.20719594,-0.5570292,-0.0024943263,-0.99996763,0.20269081,0.8965686,-0.8793718,-0.32172585,-0.99999344,-0.32113808,0.7350842,0.28363255,-0.8598355,0.83972704,-0.82850516,0.82098544,0.08604726,-0.985673,-0.9822233,-0.9921286,0.9965936,0.5584806,-0.9993612,0.641337,-0.43076447,-0.98914695,0.99485487,-0.16342026,0.9389607,-0.97408336,-0.94180703,0.8466945,0.24396461,0.55096173
ambulance,-0.6455387,0.99877566,-0.86809415,-0.6546529,0.99999547,0.19653787,-0.99775666,0.989633,0.9886144,0.8427399,0.8425896,0.99997175,-0.9999996,0.28873286,0.23518057,-0.58741874,-0.8855424,0.7198191,0.942675,-0.41705212,0.6564127,0.99825585,0.82327676,0.84660643,0.99899083,-0.6036635,-0.8867019,0.99993676,0.9411355,-0.9987082,0.09007598,-0.9748724,-0.9813796,0.99889076,-0.9965575,-1.0,0.8973196,-0.98229367,-0.9986638,0.998978,-0.588384,-0.69195706,-0.9950839,0.4278795,0.38219726,0.48374322,0.9752545,-0.6007537,0.9351033,-0.99695027,-0.99830455,-0.99999684,-0.107017376,0.9973499,0.1320676,-0.9590753,-0.2822995,-0.6935755,0.9760845,-0.40623552,-0.0040536555,0.21077944,0.9813504,-0.71991,0.13770975,-0.9456213,0.5723677,-0.71566516,0.855523,-0.95825016,-0.9952535,-0.45456702,-0.7927916,0.9207159,-0.40040138,-0.7693371,0.6510431,0.6267451,-0.9462267,0.8106855,-0.9804128,0.9991975,0.9963568,-0.3808879,-0.9228162,0.9994452,-0.8217093,0.98992753,0.9425318,-1.0,-0.77461743,0.99998116,0.9724639,-0.9938246,-0.39377218,0.70694196,0.37951764,0.66494197,-0.8376888,-0.9845559,0.9432888,0.8468462,0.9704061,-0.99878806,0.5225514,-0.97361,0.85695577,-0.9818714,-0.87430984,0.9994332,0.8402689,-0.8323366,-0.9685281,0.9973697,-0.5389577,0.99906236,0.030973395,-0.9999994,0.96332926,-0.9999217,-0.9981979,-0.86324984,0.504517,-0.96936685,0.94293225,0.45217967,0.5530452,-0.030458963,-0.9984428,0.9856798,0.7516182,-0.9961184,-0.9354774,0.56787354,0.99801487,0.14809999,-0.90522534,0.9327173,-0.99843407,-0.9990097,0.6067157,-0.99469197,0.8457528,0.24684413,-0.37598032,0.53591716,-0.9973922,0.9935026,0.25076813,-0.023900764,-0.9964814,-0.6637388,-0.62642586,0.13258141,0.9887731,-0.9536766,-0.7301242,-0.76571405,0.9539913,-0.92934734,0.87807053,0.9487117,0.9983265,0.36746404,-0.6706719,-0.99884933,0.86473566,-0.9428324,-0.5561312,-0.9982926,-0.13307014,-0.9999605,-0.9788843,-0.999203,0.96137166,0.96691513,-0.99874127,0.21788871,-0.9147125,0.10779783,0.898692,0.97668296,0.9972649,0.095134996,-0.917385,0.9701969,-0.99883133,0.96906286,-0.9513736,-0.95469964,0.78550184,0.84780383,0.15993254,0.9726598,-0.37422678,0.20932335,-0.97174996,-0.9987881,-0.99986154,0.99990314,0.99955094,0.37859252,-0.48836675,0.82326066,0.5760479,-0.9828349,-0.6711841,-0.74595034,-1.0,0.5672384,-0.9989145,0.5825963,-0.8844169,0.023761382,0.6824108,-0.9729089,-0.008073093,-0.8691737,0.91030926,-0.7476745,0.9991053,-0.9994831,-0.86325973,0.5294994,0.37695217,-0.9999817,0.99999696,0.7263922,-0.13793266,0.93048364,0.9368283,-0.8307081,0.94388175,0.61935866,-0.99786186,0.07063635,-0.9999266,0.842406,0.9959326,0.17917235,0.9051782,0.9999688,0.9286099,0.9895253,-0.55785626,0.97381395,0.9996631,0.9919351,0.9939188,-0.19249316,0.8523467,0.9968114,0.99548835,-0.31382346,-0.9674965,0.9829663,-0.14271687,0.9943739,0.9789907,0.8674827,-1.0,0.9360362,-0.5731601,0.90753764,0.89990014,-0.9177981,0.84818697,-0.9466314,-0.9288856,-0.9986165,-0.55448437,-0.99884474,0.9768975,-0.9999738,-0.99915445,0.95286536,-0.58750063,-0.53653014,0.6607737,0.94999343,0.675919,0.9944572,-0.99361527,0.8407934,-0.8680755,0.88033164,-0.45850563,0.71902496,-0.2639813,0.80875164,0.8564921,-0.9199841,-0.41085875,0.999089,0.9507706,0.99585974,-0.95816267,0.92384636,0.9998553,1.0,-0.50745684,-0.9819935,0.9997186,0.9999679,-0.6542515,-0.957942,0.9974398,-0.9959611,-0.9995185,0.69640285,0.92350614,-0.32920212,0.9195011,-0.9905233,0.98409903,0.95786405,-0.70377886,-0.97964936,-0.99878025,0.57283866,1.0,0.7507138,0.7014905,0.26819167,-0.0522586,0.51646996,0.015957508,-0.19725919,0.93526334,-0.98633295,-0.9988639,-0.6120797,0.7937779,-0.47861302,-0.9852301,0.90415543,0.80170447,-0.76159126,0.75734174,0.96339315,-0.9972318,-0.21224067,0.9693823,-0.99958897,-0.9301281,0.99991626,-0.8241998,-0.27366373,0.09499785,0.9964424,0.073754214,-0.9999915,-0.8418098,0.95106405,-0.9985543,0.99641544,-0.9788891,0.9999938,0.9980993,-0.999723,-0.9650802,-0.94170666,0.5925491,0.99530876,0.99994284,0.99996984,0.5719228,0.71257013,-0.90936124,-0.79342425,-0.91054827,0.9990029,0.98255444,1.0,-0.65555537,-0.85279197,0.6681598,-0.99955857,-0.99955285,-0.9710655,-0.44094163,0.84779507,-0.49301663,0.57310927,-0.99920285,-0.46454862,-0.84337807,-0.10205953,-0.6638739,-0.21559094,0.7882373,0.925124,0.9437154,0.85242397,0.061247867,-0.2997766,0.9999961,-0.21921368,-0.89072734,0.82938933,-0.8349628,-0.9695328,-0.9355979,-0.987174,0.95800436,-0.6205412,0.9890705,-0.49765167,-0.6268627,-0.18921125,0.80156356,0.97603726,0.5211496,-0.9668334,-0.48414993,0.99956155,-0.5060501,0.90737605,0.90039206,0.9677646,-0.8954359,-0.99347943,-0.99729276,0.8357936,0.25517324,-0.41779083,-0.997312,0.92584467,-0.6197193,0.9690667,-0.96393937,0.97482437,-0.63096046,-0.83523893,-0.359264,0.62171966,0.18315409,0.9371752,-0.9765686,0.99892676,-0.9698137,0.19361356,0.9318871,0.910063,0.91025555,-0.86259496,-0.8949359,0.5231656,-0.5566461,-0.9257385,0.990121,-0.99994105,-0.984235,-0.8451441,-0.9644908,0.8730716,0.99150527,0.40862185,0.11960905,-0.83428156,0.043806884,-0.62343574,-0.8477051,-0.9875351,0.80462813,-0.9563338,-0.8635515,0.4387859,0.8851593,0.9999758,-0.9994375,-0.4775813,-0.4098831,-0.9423242,0.9997903,0.99976814,-0.48531127,0.9811911,-0.31917197,0.997967,0.9998328,-0.9990858,-0.8385223,0.9425457,0.61296695,-0.69015056,-0.99998754,-0.8716363,0.99726766,0.9787679,0.996892,0.9908357,-0.99997497,-0.18230295,-0.05378045,-0.9708345,-0.99879533,0.97016907,0.9999983,0.9679821,-0.9940165,0.9999465,-0.9127259,-0.99914926,0.99999744,0.97648203,0.99841464,-0.9965428,-0.9946154,-0.29308736,-0.08865603,-0.8811809
apple,-0.099975295,-0.6434854,0.034041345,0.96701294,0.22901458,0.23992787,-0.9999842,0.54291165,-0.21115701,0.23994455,0.14205447,-0.8286517,-0.7194753,-0.44478762,-0.9311375,-0.42573038,-0.87653995,0.6420246,0.94844985,0.3733808,0.43262058,0.997434,0.34834772,-0.70198923,-0.25774106,-0.9181279,-0.8318221,0.9999898,-0.6949689,-0.9967229,-0.9460742,-0.8772986,-0.30802256,0.7819347,-0.9945423,-0.3618454,0.79126704,-0.9572158,0.8730982,-0.43722805,0.9805388,0.8583252,-0.9760468,-0.016689872,0.3658739,-0.95618737,0.8776023,0.6399031,-0.42872912,0.9307176,-0.9994052,-0.4039907,0.9243531,0.67316717,-0.6316619,0.9172668,-0.21415915,-0.86768967,0.7967627,-0.9275942,-0.9593692,0.5850889,0.7982481,-0.9571562,0.43479,0.15573362,-0.5366416,-0.30156052,-0.4964739,0.21146701,-0.90216315,0.11731856,0.5874747,-0.7607831,0.47926682,-0.7291628,0.35657248,0.35015208,-0.8564826,-0.07354454,-0.9989699,0.86902946,0.8862145,-0.74874073,-0.7664004,0.73852706,-0.016946793,-0.46639132,0.50112706,-0.8680309,0.4052888,0.8221446,0.9358052,0.49213293,-0.47021127,0.6009726,0.920227,0.84321964,-0.60461515,-0.9910872,0.9128913,0.37050614,-0.8939364,0.72195023,0.7896571,-0.69524515,0.11333296,0.2675908,-0.5436985,0.95441496,0.77767175,-0.8725383,-0.9676702,0.99208575,0.98454756,0.7155918,0.73790234,-0.99819344,0.7083191,-0.79748064,-0.6831945,-0.046427995,-0.5862827,0.82397896,-0.77337945,-0.094006315,-0.98428893,0.5416222,-0.9978522,0.70536774,-0.41986722,0.20136005,0.6704884,0.011349204,0.36550754,0.9388994,-0.8937911,-0.14890993,-0.9975167,-0.92038965,0.9419008,0.8945431,-0.15071958,0.91138214,0.9719112,0.34392163,0.99582803,-0.5806937,0.24278326,0.9983282,-0.7439292,0.029363532,0.68221223,-0.63697535,0.9985587,-0.99179786,-0.9139138,-0.787439,-0.8950967,-0.99986655,0.3006129,0.98284215,0.96086454,-0.9795189,-0.9237337,-0.9207911,-0.05443815,0.42374578,0.9542732,-0.89303046,0.24564363,0.3099109,-0.9502239,0.9959275,0.9685553,0.376335,-0.69633645,-0.69494516,-0.36730796,0.36419955,0.72800446,0.9867529,0.9763644,0.90723103,0.9081311,-0.049831145,0.2508108,-0.7690812,-0.8756298,-0.64999074,0.9720101,-0.7490086,-0.80673474,0.038378064,0.33187947,0.045381077,0.73749936,-0.24879345,-0.99844474,0.99845994,-0.20518658,-0.14663324,-0.8289156,0.9582691,0.3463212,-0.926806,-0.7171643,0.33065113,-0.72994864,-0.6855951,-0.27577204,-0.940774,0.71175504,0.9691269,0.22639205,-0.29546383,-0.85154074,-0.9658658,0.55076903,-0.08256325,0.9574331,-0.9999576,0.028299788,-0.74307996,0.84461796,-0.97559416,0.9422556,-0.07538084,0.70777327,0.79718864,-0.41360065,0.63834304,0.40980536,0.89164275,0.5097711,0.062082153,-0.92345047,0.04058949,0.99943584,-0.95563364,0.73257846,0.22417392,-0.78216076,-0.98066294,-0.62707615,0.57952976,0.9995258,0.8791396,0.9322578,0.24623415,-0.8692576,0.020187553,0.485135,0.32878464,-0.8811011,-0.64580166,0.82203645,0.9957254,0.9478155,-0.6056033,-0.96084,0.9439429,0.9394366,0.53142685,-0.58803195,0.20319857,0.98967415,-0.01045175,0.833651,-0.08899928,0.3870132,-0.9995705,0.23945217,-0.9602518,-0.90685755,0.696155,0.9780095,0.15489824,-0.05656055,0.99512094,0.92102057,-0.7292247,0.8902957,-0.39565408,-0.9642473,0.6731248,-0.79657084,0.8267219,0.026248977,-0.97330594,0.28163144,-0.997016,-0.92400146,0.68550223,0.8971097,-0.59680724,-0.33825567,-0.5677743,0.49015442,0.11467242,0.4480751,-0.61615753,0.44857004,-0.11020961,0.8279881,-0.5959711,0.9994921,-0.920184,-0.985995,0.015893284,-0.8697241,-0.33584946,0.98995054,-0.6978997,-0.6953299,0.82636464,0.94353116,-0.25164282,-0.266517,-0.9406202,0.9999467,-0.068405494,0.3250148,0.40797505,0.32421434,0.25402525,0.84202343,0.44594738,-0.8612585,0.17605132,-0.85756147,-0.2861622,0.40767923,-0.4089693,-0.11513133,0.025883129,0.5808786,0.53009546,-0.8055284,0.49737698,-0.9237504,-0.41054574,0.9071761,0.08203147,-0.7121426,-0.2515787,-0.5726156,-0.5243965,0.8270348,-0.6185691,-0.6906404,0.9042309,-0.59083986,-0.5667778,0.37205005,0.9411744,-0.03814477,0.910826,0.067510396,0.76854634,0.3609004,-0.7688622,0.996083,0.997327,0.9652516,-0.005735662,0.9384162,-0.20038159,0.09081958,-0.11443002,0.5925277,-0.697688,-0.973927,0.9760022,0.108073086,0.7378597,0.1866483,-0.33639082,0.98056716,0.80326796,-0.94186836,-0.9949769,-0.98108464,-0.68711084,-0.8056403,-0.12644413,-0.7727036,-0.05551638,-0.38542607,-0.99962485,0.167202,-0.16987494,0.095642224,0.8729915,0.27580982,-0.34492856,-0.6060884,0.27010068,0.3950211,-0.5427084,0.66812146,0.9145297,-0.7704121,0.12098673,0.9372778,0.15710557,0.89149195,0.860063,0.57323796,0.93928593,0.8804206,0.41920027,0.91123724,0.18368608,-0.96678853,0.35929567,-0.8980285,-0.84025365,-0.5555563,0.9807956,0.9241096,0.6777599,-0.9974993,-0.8820481,0.56255776,0.43697026,0.91837156,0.95209277,-0.7848449,0.7126913,-0.18310517,0.62148726,0.69102514,-0.22789839,-0.5016938,0.25265613,-0.33596212,-0.77574056,-0.7359884,0.8831287,-0.9836572,0.6827061,0.9810287,0.7507258,0.29553103,0.35409564,-0.97675705,-0.9926744,-0.110969655,0.87616575,0.669038,0.836504,0.23156583,-0.8057928,0.82143253,0.32162395,0.75864136,-0.40607864,-0.43419507,-0.24277884,-0.27317488,-0.75198185,-0.8171453,-0.9651082,0.76989096,-0.3683048,-0.97688144,-0.77452457,0.34713316,0.3683338,-0.9998201,-0.07520693,0.24089149,-0.05468521,0.8918908,0.88611794,-0.9293499,0.5370875,-0.7653482,0.95047504,0.40159425,-0.9381942,0.5421052,0.045933593,-0.88167864,-0.08703624,-0.99286896,0.9872288,-0.95438254,0.7759998,-0.9727906,-0.007840293,0.5575085,0.843889,0.7889977,0.8290036,-0.97178817,-0.027960904,-0.62353754,0.74893606,-0.7456365,0.42478263,-0.41827956,-0.45061433,0.9996479,0.99289584,-0.559784,-0.7127956,0.9082186,0.9921332,-0.44874966,0.77612203
apple,-0.7614344,-0.11965034,-0.69862735,0.9949723,0.48596254,0.48138285,-0.99999785,-0.13949342,-0.46925282,-0.83570725,-0.79383624,-0.84400374,-0.11094687,0.7485331,-0.7086457,0.62274903,-0.92480254,-0.4665644,0.99859154,-0.022296395,0.100242905,0.99358934,0.4683568,-0.08208649,0.99133587,0.5103634,-0.0639092,0.99998665,-0.827899,-0.96176624,-0.7442365,-0.51418364,-0.9746596,0.32082254,-0.99984354,0.6879316,-0.6309488,-0.7401929,0.9601135,0.19355576,0.6711285,0.5952944,-0.3466109,0.35302636,0.71682477,-0.8276397,-0.34331995,-0.6171806,0.87896,0.6490523,-0.99518704,-0.55189556,0.24356869,0.80388963,-0.97206867,0.5687567,-0.6237529,-0.83181125,0.9916983,-0.15461083,-0.9491769,0.6612387,0.8181676,-0.30186012,0.963114,0.56166613,0.763104,-0.8471041,0.46371672,-0.037037943,-0.061118808,0.7263342,-0.35965887,-0.37391335,-0.4398754,-0.80112785,0.31488633,-0.44435436,-0.89960116,0.9589174,-0.9195165,0.9049403,0.9984181,-0.01564947,0.5394516,0.9410739,0.8709399,-0.54047537,-0.01988192,-0.8971224,0.74850464,0.7270879,0.8484361,0.66391855,-0.7154209,0.6975814,0.026220297,-0.12819967,0.5208969,-0.992816,-0.05193174,-0.105353765,-0.43037724,0.69208986,0.7603793,-0.36692327,0.35041964,-0.49566278,-0.6200772,0.85455126,0.89478743,-0.95901024,-0.9597602,0.95559245,0.8393457,-0.38841692,0.58175665,-0.5423532,0.6048659,0.33920255,0.7785277,0.89333475,-0.3421667,0.9735601,-0.8622735,-0.29253697,-0.9616029,0.7347289,-0.99959356,0.24368924,-0.16836439,-0.7812385,0.71434295,0.4335151,0.105777524,0.83873665,0.80809605,-0.68694973,-0.9776478,-0.99209005,0.95645225,0.95573646,-0.6385,0.8865342,0.8865886,0.39606172,0.9969553,-0.5393795,-0.56516254,0.9993024,0.5584991,0.36968133,-0.08986828,-0.3829228,0.99933463,-0.9963299,-0.9701782,0.09603197,-0.9638238,-0.99989426,0.6543899,0.9958101,0.774546,-0.9462538,0.08014689,-0.999891,-0.21342233,0.58625644,0.85568607,-0.9801211,0.74121654,0.20601304,-0.8405828,0.99731505,0.7047424,0.17796338,-0.6785055,-0.6954684,-0.9497449,0.24418494,-0.3064418,0.81223804,0.8890363,0.43587548,0.949097,-0.26793367,0.13022104,-0.61994845,-0.9418718,-0.6322646,0.5857325,-0.9864581,-0.34809145,-0.008536012,0.5021331,0.15635294,0.16261688,-0.8246664,-0.9984668,0.9900057,0.60556793,0.9280376,0.18311653,0.8707332,0.48622018,-0.9775826,0.27359393,0.891404,0.6980182,-0.6518864,0.71259546,-0.6222248,-0.18410368,0.99480623,-0.9210701,-0.19826917,0.10707741,-0.9902456,0.91998386,-0.14319627,0.9479021,-0.99926996,0.47956192,-0.97645116,0.9884581,-0.9690116,0.47290957,-0.27256206,0.46457773,0.8465838,-0.48960185,0.3174082,-0.0448508,0.2177554,0.97639084,0.067091085,-0.83118844,0.96496534,0.9966889,-0.9138768,0.90584445,0.13357802,-0.7965301,-0.7856392,-0.29351977,-0.4132934,0.9996955,0.98332465,0.873874,-0.589764,-0.7208495,-0.29480606,0.41226062,-0.70774317,-0.77679116,-0.27069286,-0.19461277,0.8163095,0.8685705,-0.9588988,-0.9939381,0.8484618,0.85227495,0.60181034,-0.2337634,0.7782072,0.97511536,0.89304954,-0.115070246,0.29520687,0.8167652,-0.9992924,0.4385867,-0.9197578,-0.9839525,0.9353882,0.9658056,-0.6580557,-0.9832827,0.97355586,0.19145282,0.35628408,0.43231684,0.64295965,-0.38380718,0.5778896,-0.9906627,-0.54143417,-0.030515237,-0.848467,0.41638651,-0.9971746,0.87890846,0.56324726,0.6543369,-0.74844295,-0.06013344,0.40876648,0.9544108,-0.7663663,0.3736906,0.45071858,0.7422983,0.8714611,0.9390779,-0.07670169,0.9995722,-0.99669856,-0.9392971,-0.6668439,-0.55478203,0.82724255,0.9322918,-0.7801702,-0.030920029,0.8393128,0.2913786,-0.7043227,-0.8858815,-0.8789933,0.996121,0.61056435,0.87424374,0.8349462,-0.98189014,0.5604461,0.94832546,-0.7759633,0.58086556,-0.44148523,-0.9643096,0.733727,-0.11756841,-0.644719,0.25408894,0.20457585,0.7676255,-0.85417473,-0.94384617,0.21268576,-0.55745745,0.2915354,0.7890037,0.7581075,0.122431934,-0.42875051,-0.7366017,0.5053423,0.9358083,-0.49168316,-0.17875922,0.8049102,0.12825726,0.9452707,0.24570006,0.92878586,0.02647003,0.5990485,0.3468519,0.79435813,0.82837385,-0.9968064,0.9963238,0.25999406,0.84527266,0.9647277,0.82758003,0.6779025,-0.57201517,-0.15812948,-0.7954363,-0.41798794,-0.97138965,0.73599094,0.48328343,0.83460164,0.5464609,-0.43595487,0.9887817,0.65738046,-0.93940735,-0.23997192,-0.98780876,0.5652762,-0.81081146,0.23431148,-0.35306868,-0.81141675,0.6454772,-0.97492933,0.2000069,-0.34113312,0.7861692,0.8650052,0.49249366,0.53521585,-0.40776882,0.30273592,0.10728238,0.026771938,0.95875007,0.16154487,0.36824352,-0.16048768,0.86382395,-0.6970616,0.9200593,0.25216538,0.93822145,0.99397427,0.9977351,0.25082397,0.692284,-0.8789631,-0.9830824,0.64848965,-0.9210875,-0.07446177,-0.9296345,0.8417513,0.8353106,0.80955255,-0.9989213,-0.77233076,-0.4588641,-0.28436825,0.5946935,0.3353812,-0.66485894,-0.005567783,-0.7035435,0.87350255,-0.5739848,-0.40176073,0.39956534,-0.018032398,-0.13514581,-0.5641347,-0.8045438,-0.21684009,0.44910774,0.37457237,0.81357026,0.4252423,-0.67609257,0.24286444,-0.6690426,-0.991327,0.23214424,-0.84937507,0.9941027,0.6615994,0.8813633,0.06642116,0.7226484,-0.27557603,0.47865814,0.48535138,-0.51528007,0.70932615,0.78554887,-0.9726114,-0.66001517,-0.9863263,-0.9187313,-0.78785485,-0.90063804,-0.71386796,0.6790776,-0.39078456,-0.99988633,0.51937556,0.6339571,0.9461124,0.87097794,0.7995421,-0.98062855,0.9737247,-0.512579,0.77880096,-0.20924976,-0.99658805,0.92068416,-0.47970432,-0.88330126,0.48421705,-0.9794655,0.9033375,0.20561177,-0.80144525,-0.9851303,0.4758749,0.2865596,0.74379253,-0.11854821,-0.11698854,-0.9972185,-0.5516431,-0.69720143,0.9725179,-0.4509263,0.8965829,-0.9146294,-0.21164368,0.99532753,0.85210913,-0.6251859,-0.47436148,0.4619405,0.9280777,-0.84347904,0.7717669
apple,-0.8543011,-0.61515206,0.80018014,0.9428355,-0.0008313765,-0.20706251,-0.9999239,0.56818074,0.9267183,-0.7228567,-0.7632177,-0.5972967,0.21708031,-0.57524616,0.7063103,0.15320288,-0.9335635,0.6959389,0.0669026,-0.5857732,-0.3601202,0.33641887,0.018903788,-0.5003918,0.8686854,-0.85899156,-0.6963007,0.9997765,-0.15045844,-0.9965076,-0.93041676,-0.8381218,-0.89341086,0.35622773,-0.98352724,0.38898104,-0.57274956,-0.2639811,0.90293217,-0.96527946,0.89302087,-0.06515454,-0.53139067,0.22208779,0.9860936,-0.91485566,0.4596916,-0.62732774,-0.95855665,0.95187384,-0.9978514,0.14481466,-0.10344678,0.6254551,-0.8463988,0.9276011,-0.80249184,-0.55176663,0.99989647,-0.7074704,-0.9995738,-0.3516665,0.60978895,-0.76220757,-0.030903032,0.60869056,0.6005179,-0.9646833,0.5119732,0.028279627,-0.6339275,0.72052574,0.44196114,0.28153253,-0.1684464,-0.40501118,-0.25502044,-0.56062007,-0.5580446,0.9683995,-0.59757,0.957709,0.030478213,-0.059515502,0.33782473,0.99328893,0.2009127,-0.21115546,0.01561312,0.13723892,0.52694285,0.1537819,0.9264872,0.82014555,-0.84989536,0.10202269,0.44930738,0.90150255,0.24880995,-0.9274554,-0.9497258,0.7147031,-0.027791485,0.8507427,-0.6871314,0.17649515,0.25658658,0.114926964,-0.995322,-0.09802812,0.9990007,-0.39202812,-0.33781034,0.9038039,0.9868123,0.99704623,0.99091935,-0.6753829,0.5393312,-0.760868,-0.0046068677,0.98609203,0.23333876,0.71759665,-0.6079718,-0.8311765,-0.55883294,-0.49529374,-0.98967093,-0.9035343,-0.9928667,0.56028813,0.27983907,-0.89878225,0.50543875,0.9827407,-0.16769613,0.88519424,-0.77251506,0.34941047,-0.10623508,0.27049363,0.49227652,-0.6856148,0.99015266,0.45117694,0.9971303,0.008709023,0.66790736,0.9959522,0.75902015,0.8352742,-0.69116914,-0.21911077,0.99638563,-0.883849,-0.99540555,-0.9725222,-0.6481964,-0.996491,-0.4015897,0.90156335,0.98652816,0.10588319,-0.47201818,-0.96817297,-0.92597866,0.14957654,-0.10739619,-0.676535,-0.6719065,0.21283694,-0.7120551,0.96944684,0.8474502,-0.38878867,-0.9757957,-0.9440889,0.1618791,0.14330308,0.7837595,0.30974197,0.65206635,0.7928876,0.79014236,-0.16277918,-0.8584141,-0.5631451,-0.7223189,-0.99044466,0.89621025,-0.912632,-0.8828999,0.91487753,0.3413314,-0.54670817,0.2027131,-0.7275252,-0.9126584,0.61994094,0.6076332,0.7881525,-0.39762613,0.66298,0.50506765,-0.95575935,-0.12961705,0.8637229,-0.23025756,-0.7428619,0.9027626,-0.92992085,-0.97352636,0.9864483,-0.89689404,0.91553104,-0.6714027,-0.93468636,0.89821345,0.1882608,0.993331,-0.99419653,-0.9108172,-0.8117469,0.99585897,-0.69016314,-0.8648087,0.7920246,0.7358974,0.7464642,-0.1663978,-0.7875908,0.8763975,0.16869721,-0.8935551,-0.35158214,-0.6055216,0.81298035,0.9664903,-0.81334966,0.9475204,-0.093633965,-0.9856483,-0.3050042,0.05427317,0.530342,0.98002493,0.22812255,0.48305142,0.977827,-0.5132568,0.4506471,0.9313463,0.9894542,-0.71811956,-0.84712714,0.16965102,0.9386724,0.9910678,-0.79827565,-0.8768047,-0.656656,0.9651921,-0.13287124,-0.6895194,-0.34029105,0.68535846,0.51542306,0.9947623,0.9204093,0.0848757,-0.99933904,-0.30051085,0.1970001,-0.39047438,0.60087574,0.9784678,0.8641808,-0.6837782,0.20969604,0.7383957,-0.7743482,0.97392786,-0.120678365,-0.9773601,0.89233583,-0.8699282,0.09957376,0.94855565,-0.9501201,0.93911695,-0.99854606,-0.99177086,0.21384121,-0.21094495,0.6520291,0.16244936,0.57111394,0.950239,-0.18924248,-0.5536873,0.35401177,0.70278466,0.8235932,0.62593836,-0.85490346,0.98404765,-0.9770791,-0.9366332,0.2771734,0.73528224,0.40561765,0.6645632,-0.9442445,-0.4663083,0.8837985,0.9819959,-0.57237136,0.6458847,-0.9135071,0.99199235,-0.48221493,0.8919482,0.091205284,-0.7347579,-0.13697077,0.89872825,0.6403526,0.97883946,-0.64885765,-0.99047697,0.968669,-0.50691646,-0.14781709,0.872474,-0.4987906,0.6588153,-0.123280324,-0.9355959,0.604698,-0.80360997,-0.7642273,0.731082,0.8414568,-0.46513525,0.68238306,-0.9704,-0.9654051,0.9610783,0.1531443,0.6380612,0.1815582,-0.0097347135,0.76687455,0.6751745,-0.67161644,-0.3674825,-0.3162757,0.7256394,0.8355363,0.86594325,-0.5746843,0.9807894,0.9998093,0.6555494,-0.50455195,0.34485173,0.2833195,-0.50224394,-0.98896587,-0.9626511,0.6224305,-0.5694215,0.9448313,-0.8673725,0.9620929,-0.9258374,-0.9435206,0.9979405,0.50325197,-0.44402108,-0.8200775,-0.74838954,0.6782043,0.08437689,0.70739347,-0.9093113,0.50147796,0.75700754,-0.9935386,0.44195506,0.36858365,0.43907058,0.8096856,-0.9245306,0.30913937,-0.8257401,-0.54080033,-0.72496384,0.5048529,-0.6535995,0.21376279,-0.84111285,0.9421785,-0.27438062,0.65304583,0.95427793,0.753264,0.90703523,0.99826014,0.62049127,0.024043662,0.15443029,-0.9644367,-0.9679053,-0.96565574,-0.97427857,-0.114541635,-0.9555808,0.8769548,-0.45581865,-0.56541115,-0.9979951,0.020425845,-0.95843893,0.6821676,0.518997,0.7666615,-0.16325271,0.9620168,-0.024519295,0.9779487,-0.4978302,-0.16394429,0.7930663,0.8303803,-0.64521575,0.7592169,-0.4324136,-0.7688512,-0.8596745,0.33058083,0.9203989,-0.23176451,-0.7563994,-0.8541485,-0.9995088,-0.99742985,0.23525023,0.85509425,0.82749957,-0.4460821,-0.24712923,-0.43072876,0.16467343,-0.867162,-0.017976193,-0.79253805,-0.10976755,-0.52588415,0.7165288,-0.9708543,0.7809644,-0.98289156,0.2653466,0.6034736,-0.59729594,-0.050350845,0.62163764,-0.60189885,-0.99133044,0.7524875,-0.68625695,0.73775107,0.81725293,0.9678867,-0.99702895,0.999806,0.8799151,0.9355616,-0.88255644,-0.9907258,0.55971694,-0.37000734,-0.730448,0.3704435,-0.9982332,0.8460915,-0.7474201,0.85307467,-0.14462367,0.18383889,-0.47134316,0.92109746,-0.3785563,0.36360866,-0.98314154,-0.11278811,-0.74762833,0.77834576,0.25793457,0.57063323,-0.9932478,-0.19852015,0.952812,0.9582569,-0.6671383,-0.22732274,0.97644985,-0.4487168,0.48986015,0.06261784
apple,-0.9855469,-0.3296267,0.78843147,0.98276603,0.58746254,0.44677684,-0.9999233,0.85039276,0.7735411,0.48951125,-0.98077863,-0.48050022,0.29372397,-0.031957943,-0.7444362,0.04229619,-0.9414487,-0.22095984,0.9391917,-0.4058448,0.09563702,-0.38008538,0.32536787,-0.054013975,0.9604752,-0.30184713,-0.9048424,0.99998325,0.28464228,-0.9079571,-0.99556124,0.8815214,-0.39669785,0.9224764,-0.99489725,0.63783985,0.5349027,-0.9211071,0.81265885,-0.7121631,0.9897006,0.80389816,-0.108129114,0.014059228,0.99459624,-0.4491169,0.49595055,0.63211966,0.078879535,0.7113188,-0.99984795,-0.6124799,0.6273744,0.7711925,-0.8636717,0.39056206,-0.7786962,-0.9072299,0.8753404,0.8159643,-0.9812476,0.7389621,-0.24728939,-0.60285026,0.87684065,0.81101817,-0.4989279,0.45573503,0.7321609,-0.15845414,-0.1962564,-0.26482138,0.84960544,0.17362165,-0.91621476,0.06567461,-0.81807566,-0.7872636,-0.85622513,0.62484753,-0.15310459,0.9992773,0.84083575,0.29233,-0.7852046,0.9551263,0.21555856,-0.0059745936,0.2431451,0.07863561,0.9717978,0.9568614,0.38334423,-0.046208672,-0.9683174,0.27148768,-0.1842377,0.024796674,-0.51612186,-0.48620656,0.9120419,-0.84437084,-0.9530626,0.8126389,-0.104371086,-0.456964,0.6181613,0.030291807,-0.8127292,0.9729067,0.95069075,-0.7665424,-0.4815498,0.87048125,0.71486855,0.916914,0.9575164,-0.44143716,0.7483406,-0.82338405,-0.26309073,0.85374606,-0.9254417,0.56821585,-0.92335206,-0.83455026,-0.28269166,-0.4214297,-0.98144317,0.8001494,-0.8048944,-0.23533398,0.5063622,-0.80982906,0.4196587,0.56379473,0.9944226,0.95321333,-0.93158036,-0.9847836,0.67629695,0.6240027,-0.94182914,0.92957747,0.70796233,0.9132927,0.9986549,-0.86021835,-0.50120616,0.99604183,0.64781046,0.68795377,0.42079756,-0.8983901,0.9961723,-0.9821346,-0.6937181,0.54210424,-0.8884113,-0.9999124,-0.2497257,0.933438,0.97936237,-0.87359315,-0.90392584,-0.99923366,-0.8718325,0.88075954,0.71898144,-0.94064397,0.25965586,0.34263805,-0.8452219,0.99517953,-0.043888144,-0.06344262,-0.7620732,0.114176795,-0.948705,0.22608861,-0.4969438,0.90758175,-0.13205318,-0.1678852,0.78131616,0.49263108,-0.8119039,-0.59225935,-0.98147964,0.02127234,0.9851244,-0.89090985,0.036134757,0.5795932,0.16210935,-0.9371057,0.7883339,0.7130788,-0.8820932,0.9711587,0.122432895,0.83686846,0.21624865,0.91263753,0.03424964,-0.91762334,-0.5861789,0.8333967,-0.33689716,-0.4101306,0.60086066,-0.8711322,0.64895386,0.9698448,-0.90449715,0.16491291,-0.04449565,-0.7376343,0.7917671,0.2597093,-0.21665156,-0.9920863,-0.119689964,-0.9388477,0.9991127,-0.92955524,-0.9143398,0.6564294,0.8333534,0.9058162,-0.47315067,0.56773704,0.10623093,0.79826003,0.37638876,-0.4390851,0.16265363,0.92857707,0.59302,0.037698217,0.9985396,0.4296223,-0.9515534,-0.9497494,-0.55104023,-0.6084148,0.99727577,0.80535513,0.0477965,-0.71571684,-0.9365877,-0.5591065,0.52344155,0.4964595,-0.106993094,-0.8060553,-0.5159718,0.99251956,0.9578212,-0.24042402,-0.9997712,0.51681745,0.98329407,0.45899546,-0.7888821,0.9171609,0.5230282,0.21857584,0.9111469,0.8369047,-0.74088997,-0.99991393,-0.18639535,-0.19954503,-0.65227544,0.9626162,0.9598069,0.8637257,-0.94886506,0.9613141,0.5018156,-0.51724607,0.9413954,-0.19617607,-0.19580045,0.888024,-0.9863486,0.37054875,0.5694181,-0.9483431,0.5450654,-0.94637835,0.22744848,0.984042,0.7094565,-0.86507654,0.15270771,0.7952043,0.5263545,-0.7008136,-0.33974907,0.32706538,0.7350794,0.8672961,0.8929899,-0.8805203,0.9872339,-0.49662673,-0.81979525,-0.4204278,0.59314704,-0.09839634,0.95526534,-0.9295228,-0.5039903,0.8333668,0.4265174,0.3252484,-0.40449876,-0.40548325,0.91045576,-0.012779374,0.3427208,0.4715482,-0.8578364,0.7554458,0.88298756,0.41398036,-0.79680896,-0.97109705,-0.993835,0.9344816,0.33793673,-0.76734054,0.20397887,-0.9326981,0.96424925,-0.53215575,-0.9843431,-0.06804013,-0.95584357,0.77814513,-0.18801206,0.7918406,0.88396996,-0.15672745,-0.97082925,-0.6433615,0.85206336,-0.9054549,-0.8259369,0.022973696,-0.8213273,-0.4206398,-0.040834155,0.23178028,0.47401288,-0.3426925,-0.69961435,0.9625685,0.7515938,-0.82004,0.9982141,0.9071409,0.59304804,0.7638261,0.7950432,-0.40828243,-0.796482,-0.15764247,-0.52433336,0.7282937,-0.8352415,0.19823124,-0.922539,0.997549,0.2550877,-0.6314245,0.9987314,0.7017058,-0.64560276,-0.48703617,-0.5497362,-0.25089076,-0.21313928,-0.1030029,0.70709527,-0.24437322,0.888686,-0.9514989,-0.60836476,-0.8401767,0.4324363,0.81587124,-0.5916558,0.92413366,-0.16159292,0.3579523,-0.23719919,-0.30723044,0.7021138,0.043638654,-0.91923213,0.6411978,0.20946397,0.27243346,0.98852855,-0.053736027,0.32427198,0.9963317,0.986921,-0.79776627,0.59132653,-0.5268653,-0.99707985,0.45053428,-0.8775331,-0.60078776,0.17208427,0.9416382,0.5486562,0.80563694,-0.99753773,-0.53644407,-0.92403084,-0.47381085,0.84517527,0.99640596,-0.7562219,-0.78242964,0.9498199,0.60634625,-0.24678132,-0.7609622,-0.32499406,-0.20859495,0.074841775,0.4943351,-0.98527396,-0.17773171,0.3563433,0.58682376,0.984021,0.9128857,0.86436325,0.46890968,-0.9840532,-0.9982497,0.75733936,-0.10721613,0.765867,0.7255976,0.91983974,0.1354871,0.9073349,-0.71062845,0.7677736,-0.6917841,-0.6869042,0.58642554,-0.38124463,-0.99994063,-0.7405493,-0.99996245,0.7466732,-0.63128006,-0.9101838,-0.017108915,-0.2883262,-0.9250769,-0.99942666,0.034696884,-0.25437054,0.9486732,0.95946383,-0.46109182,-0.99460703,0.7018466,0.21700737,0.18474029,-0.48874006,-0.9324925,0.4438387,0.13209024,-0.066064455,0.5586041,-0.9994899,0.94524854,0.12755407,-0.008013404,-0.8573334,0.8828197,0.60857064,0.9223481,-0.42188075,0.42074305,-0.99035144,-0.7596738,-0.97921103,0.85661757,-0.07752476,0.8663772,-0.5742663,-0.40957305,0.97382015,0.99417174,-0.85287565,-0.727661,0.8287877,0.8182815,-0.7445273,0.6911764
apple,-0.5547181,0.68492156,0.70498514,0.99694556,0.8666844,0.53942776,-0.99999934,0.12820727,0.5291724,-0.5046502,-0.9290577,-0.97172415,0.57438165,-0.07629487,-0.70693594,-0.5252393,-0.9102631,0.8250142,0.6564713,0.1573165,-0.35705483,0.9967986,-0.35952646,0.6009468,0.55974627,-0.5565538,-0.6097258,0.9999981,-0.9532603,-0.99988115,-0.9609889,0.23842889,-0.94542134,-0.120320454,-0.97439915,0.8469209,-0.6304253,-0.6050324,0.94288015,-0.92542374,0.9787206,0.37326872,-0.41390368,-0.11056682,0.9343034,-0.97961104,0.42659593,-0.018946664,-0.057700686,0.97706085,-0.9989524,0.29350236,0.51514024,0.49327156,-0.96894974,0.97410685,-0.7439446,-0.9213374,0.98780876,0.0015614614,-0.9965211,0.9481883,0.66247463,-0.61448663,0.7206685,0.5377549,-0.9392792,-0.61173445,0.27092,-0.13342167,-0.5085784,-0.32513788,-0.56805617,0.48187962,-0.42786136,-0.7626336,-0.495621,-0.40607443,-0.86573607,0.83374125,-0.91970026,0.71707654,0.582367,0.13392058,-0.30280742,0.9604929,0.5409445,-0.7885636,0.28864044,0.109321676,-0.515087,0.44595888,0.8626954,0.752747,-0.88565934,0.83720917,0.6472868,0.84847045,-0.026032256,-0.95686346,0.91980386,0.31236735,-0.8565641,0.9436484,0.6766418,-0.387182,0.33972389,0.24331483,-0.9948545,0.9667925,0.6427504,-0.93939584,-0.644034,0.4474578,0.9922327,0.6331618,0.7601702,-0.55862206,0.9635684,0.2652569,-0.507234,0.97107446,-0.47745484,0.98424906,-0.68049985,-0.92784065,-0.9232168,0.39435765,-0.9986717,0.0017052462,-0.8677877,0.013563575,0.49927956,0.3413099,-0.16897699,0.9432904,0.20732911,-0.82714236,-0.9876789,-0.7484453,-0.114495575,0.9362176,0.28246024,0.7190043,0.99820435,0.0487679,0.9974093,0.4329205,-0.07621012,0.9992191,0.8387206,0.66559714,0.022569189,-0.44595155,0.9997497,-0.9917027,-0.9943864,0.24976785,-0.9858026,-0.9999223,0.23755363,0.94188976,0.76687264,-0.95438707,-0.9624322,-0.96213436,-0.88863695,0.7064278,0.9861147,-0.6954359,0.6595899,0.6141614,-0.12084143,0.9972606,0.9094854,0.28518403,-0.59371096,-0.98178,0.6183977,0.648019,0.8113483,0.8559072,0.89085895,0.68377936,0.8938766,-0.6870551,-0.29472262,-0.8510929,-0.33309335,-0.46712235,0.9421181,-0.76944554,-0.940588,-0.47542673,0.42903227,-0.37081075,0.81681675,-0.3845704,-0.9363872,0.9951804,0.107681796,0.34415504,-0.19528453,0.91431844,-0.64891076,-0.9920852,-0.62212586,0.9125877,0.80656767,-0.7601616,0.89843124,-0.93482256,-0.57088524,0.9993474,-0.985575,0.011054027,-0.09157006,-0.89845806,0.9772913,0.37922338,0.792235,-0.9997509,-0.60311794,-0.846992,0.97269756,-0.8498745,0.19399647,0.14566632,0.868569,0.88062817,-0.1794155,0.18200102,0.6539463,0.90528154,0.78335226,-0.65314806,-0.03359415,0.6274759,0.99496526,-0.61670697,0.9179903,0.25833103,-0.97171944,-0.90341395,-0.35159737,0.90904796,0.99955523,0.86222565,0.9296822,-0.183103,-0.910457,-0.21660487,0.67878157,0.23411639,-0.77914435,-0.9529917,0.30040562,0.9953707,0.9879814,-0.8757205,-0.8570644,0.8296268,0.9823211,0.5854534,-0.5914242,0.14539447,0.9748479,0.24354067,0.98699385,0.7462862,0.931153,-0.9998777,-0.8286312,-0.643409,-0.9409877,0.9610787,0.9986007,0.07548073,-0.8724203,0.9929974,0.4059029,-0.57887733,0.96709317,0.4231507,-0.93655866,0.5908505,-0.9862968,0.02893023,0.7741297,-0.9973399,-0.17159021,-0.9998403,-0.73243636,0.87555355,0.7624668,-0.65325373,0.054222338,0.44767943,0.9539432,-0.86348677,0.77569497,0.80945563,0.78978646,0.21659139,0.8733562,-0.2585366,0.9994726,-0.7393776,-0.74278736,0.48121575,-0.5941796,-0.35819277,0.9846905,-0.9375779,-0.50888187,0.9061284,0.9494619,0.00012265146,-0.52867305,-0.8473369,0.948535,0.010816747,0.4743,0.8643938,-0.8990159,-0.14008911,0.9526272,-0.33497548,0.07688265,0.049594067,-0.954843,0.11320959,0.29936296,-0.55016375,0.8255382,-0.4161186,0.39205313,-0.2636302,-0.9670728,-0.06976307,-0.6060384,-0.6376012,0.4908179,0.97194535,0.23739956,-0.5149163,-0.96209913,-0.39019027,0.93827087,-0.7051841,0.38416567,0.9694567,-0.7525906,0.11225939,0.686575,-0.09154566,0.39199644,-0.22143199,0.061923336,0.803406,0.60065424,-0.9881028,0.99364394,0.98565054,0.4673459,-0.65918714,0.97927946,-0.49682677,-0.90418804,-0.5746094,-0.8962261,-0.73251474,-0.9741345,0.6377144,0.7324119,0.9402793,-0.277285,-0.37139034,0.9992922,0.8866621,-0.8832787,-0.9791517,-0.99689525,0.26771802,-0.15847017,-0.31784114,-0.22690442,0.09552835,-0.47315368,-0.98768985,0.62664807,0.85421276,0.55569804,0.8848442,-0.31116897,0.28829235,-0.9602906,0.39648995,-0.73129237,-0.59473675,0.8163136,0.10432849,-0.7523817,0.83727103,0.98562527,0.7143112,0.13241649,0.46221673,0.8031809,0.9660422,0.86416525,-0.26015216,0.80398136,-0.7714662,-0.9925996,-0.29371506,-0.89846367,-0.8352858,-0.8903053,0.97723746,0.5827146,0.25420347,-0.94302136,-0.6686205,-0.9146843,0.34571332,0.9371831,0.64048684,-0.7834701,0.49029484,0.25194612,0.10058492,0.40663123,-0.15109855,0.2731533,0.32126567,-0.7499974,-0.8314349,-0.48620832,0.021327775,-0.8222648,0.36300418,0.8452679,0.31535068,-0.1482109,0.53156954,-0.948651,-0.9992427,-0.25935984,0.6141169,0.80980027,0.69027764,0.47600377,-0.279708,0.80387765,-0.90605235,0.6440367,-0.7260749,-0.30139375,0.34128672,-0.6702419,-0.88787645,-0.1225496,-0.8752596,0.74622256,-0.8156446,-0.9957001,-0.6282285,-0.5875528,-0.91334563,-0.9998298,0.16600427,-0.0025622786,-0.15426902,0.092198044,0.3265655,-0.9717717,0.8098644,0.27369654,0.8623768,-0.5285493,-0.98133606,0.6613599,-0.2306614,-0.97290176,0.6117364,-0.9994522,0.97536826,-0.91294384,-0.027674474,-0.994083,0.30632916,0.90008175,0.22364892,0.053313877,0.4114929,-0.63065743,-0.2087884,-0.95789546,0.984487,-0.37099367,0.14617941,-0.9240565,0.70570844,0.9497407,0.8101278,-0.056282878,-0.8259493,0.9780135,0.91575617,-0.7045836,0.55217594
bicycle,-0.9485826,0.94658893,0.9075079,-0.9404638,-0.2556146,0.7114383,-0.971902,-0.25152683,0.965494,0.18164958,-0.23998573,0.99713707,-0.9999929,-0.8621987,0.99766773,-0.98991185,-0.97900516,0.5132428,0.07044724,-0.27560824,-0.99996936,-0.67710614,-0.30484173,0.9488752,0.41691464,-0.9824776,-0.9801412,0.98888856,0.98943484,-0.99994165,0.08444957,0.19444412,-0.5765784,0.0937632,-0.9845644,-0.99981046,0.32362154,-0.7476045,0.068093255,-0.8291993,0.48063114,-0.8658388,-0.95813435,-0.59404355,0.9876205,0.9597747,0.9690261,-0.8305726,-0.9889113,-0.988141,-0.99874175,-0.552465,-0.9844584,0.6732718,-0.8794503,0.23960689,-0.9942074,-0.5167385,0.8876706,-0.6556593,-0.82351816,-0.5630047,0.7713798,-0.96588635,0.03615918,-0.97272044,0.56190574,-0.99983793,0.92750543,-0.74189514,-0.45548707,-0.9944067,-0.99758667,0.99915314,-0.98083967,0.96406424,-0.21054457,0.15778106,-0.98752844,0.99984896,-0.87496126,0.9999998,0.8189352,-0.27432042,-0.94580144,0.9987187,-0.8377636,0.13051023,0.025357677,-0.71435785,0.24705207,0.9959094,0.99748135,0.045248326,-0.86862004,-0.9460012,-0.9129555,-0.21937071,0.099346295,-0.96720624,0.99612415,0.99849606,-0.18083288,-0.9902002,0.29004726,0.35950187,-0.585094,-0.38627318,-0.99998784,0.9633821,0.6328748,0.99668354,-0.7786274,0.59706795,0.5444408,0.9875372,-0.7736754,-0.68921417,0.9100539,-0.82031053,-0.5914337,0.6364572,-0.38115856,-0.99988526,0.76013464,-0.9089591,0.33549732,-0.99694157,-0.47719592,0.96140105,-0.45667973,-0.7801091,0.6718581,-0.9175112,0.99918205,0.69397074,0.9670846,0.9986046,-0.8785831,-0.84709257,-0.6807903,-0.90006703,-0.75716656,-0.97546834,-0.7351709,-0.42193693,-0.988569,0.34625033,0.7441032,0.44250703,0.81269395,-0.809597,0.81158525,0.20741552,0.65472955,0.8410476,-0.9962884,-0.9201972,0.9919942,0.25147468,0.7671556,0.3445763,0.9994896,0.9903343,-0.5498904,-0.746509,0.7838211,-0.9942029,-0.74224085,-0.55428773,0.62270427,-0.7518332,-0.74281377,-0.890612,0.08412885,0.75318474,-0.99999446,-0.99805963,-0.91154987,-0.74233204,0.92693216,0.38355988,0.9308153,0.8890941,-0.99869,-0.59077394,-0.95570123,0.96892864,-0.997181,-0.2168884,0.9959287,-0.9092725,-0.81114244,0.9895097,-0.4235977,0.2344278,0.96572626,-0.3055639,-0.7545354,0.99818003,-0.9917519,0.7823861,0.14327015,0.49519908,-0.836103,0.084438816,0.67519933,0.6510941,0.035464335,0.8625233,-0.7896235,-0.63533854,-0.9991213,-0.76623595,-0.9580324,-0.58551294,-0.7531187,-0.6327785,0.9952934,-0.6772586,0.46053204,0.2125119,-0.99984777,0.07809304,0.99313116,-0.90318424,0.9994881,0.374288,0.6152783,-0.6168581,0.36284235,-0.94010746,0.80972654,0.987663,-0.93929636,0.3220001,-0.9997792,0.8990207,-0.273208,0.77522266,0.92781067,0.9950594,-0.035624437,0.967277,0.945652,0.70289946,0.8145687,0.9443451,0.73478764,-0.8630529,-0.96029717,-0.28820685,0.5554679,0.78750193,-0.9881025,-0.79144377,0.08402853,0.96860486,0.4640244,0.9841633,-0.99199414,0.9982156,-0.5358554,0.33234873,-0.3781585,-0.6776243,0.7513526,-0.39971,-0.091594785,-0.7542192,0.86109626,-0.78424364,0.933418,-0.9978904,-0.98744756,0.75695485,-0.69472677,0.9678021,-0.9981596,-0.36917695,0.83939165,-0.05376938,0.21977419,-0.86554873,-0.99119204,0.97649443,-0.8538593,-0.5173919,0.95222974,-0.6783383,-0.64513415,0.9704654,-1.0,0.94717026,-0.9938124,0.9511932,-0.84242463,0.2883074,0.9997833,0.66104007,0.9648387,-0.92839396,0.9999864,0.9966941,-0.99486357,-0.9877491,0.98235416,0.31681904,-0.74259454,0.9216544,0.35165927,-0.9323202,0.9827901,-0.9865864,0.7792858,0.97270906,0.8132661,-0.8988765,0.6134308,-0.87497824,-0.16550697,-0.20716979,0.7762448,0.4839687,-0.70489573,0.49922007,-0.95695436,-0.80300343,0.9998281,-0.9999969,-0.999882,0.06567997,0.07639786,0.99651027,-0.8167112,0.41419074,-0.7201949,-0.40829733,-0.9895396,0.045108046,0.09397948,-0.77475387,0.9709707,-0.26695165,-0.9228339,0.96692467,-0.5258141,-0.6732905,-0.12733158,0.8138907,0.99996394,-0.99980986,-0.98835945,0.8073001,-0.9942089,-0.82477164,0.6282534,0.9967806,0.80530274,-0.9714294,-0.58697456,0.52486753,0.98860234,-0.14917606,0.9977332,0.9876893,-0.44903946,-0.7870292,-0.9563076,-0.8146576,-0.9970095,0.99999714,0.90736914,0.768633,0.5398953,-0.19132242,-0.9999966,-0.76533204,0.96980983,0.8567872,0.9998692,-0.7856902,0.97395927,-0.7031543,-0.9962678,0.99632126,0.9241448,0.6863159,-0.82760596,-0.78623205,0.9993889,0.9992587,-0.7329242,0.9511589,-0.30474785,0.99478143,0.9519519,0.13549627,-0.9915369,0.4504198,-0.7465626,-0.20262086,0.44345865,0.98811454,-0.24685518,0.3800376,0.93573755,0.47667456,0.9703274,-0.25897604,-0.9526545,-0.5410892,-0.29985943,-0.97292733,0.9085619,-0.5140394,-0.93686354,0.22777575,0.30621776,0.921932,-0.96034646,-0.09596935,-0.31485027,-0.0779372,-0.93064207,0.374359,0.90432674,0.9704635,0.716271,-0.85248643,0.60744447,0.65412337,0.44676504,0.54989374,-0.80785424,0.35611278,0.782694,-0.94222444,-0.8903278,-0.6193868,-0.9999776,0.9577718,0.98314655,0.99596167,-0.5643345,-0.99827886,0.027287338,-0.8297959,0.75655985,0.49989194,0.5264457,-0.8643779,-0.99013555,0.5766679,-0.4439831,-0.020253658,0.985557,-0.98404557,-0.24285275,-0.9984647,-0.8209789,-0.99752325,-0.9982281,-0.99916035,0.73565716,-0.76426226,-0.9991423,-0.94635504,0.9292168,0.9378396,-0.8750351,0.13584957,0.9830597,-0.9977419,0.9976594,0.98606944,-0.68035924,0.9855139,-0.9098609,0.94713724,0.6345165,-0.99998003,0.7978871,0.79702634,-0.89046246,0.31730294,-0.99998164,0.48222312,0.67634326,0.9797214,-0.87987965,0.88012093,-0.3134775,-0.14937127,0.47087905,-0.9921951,-0.61646515,-0.99786454,0.7913795,-0.99381334,-0.99969465,0.5152043,0.066249795,-0.70794976,0.9997451,-0.23642021,0.017182117,-0.88580585,-0.98383677,0.9688505,0.9831018,0.02014707
bicycle,-0.5711681,0.98238355,0.578784,-0.9218394,0.8914818,-0.29711294,-0.9969106,0.6893876,0.6035944,0.14146596,0.09413906,0.99976075,-1.0,-0.9344565,0.9999583,0.3045194,-0.9457458,-0.024505801,0.65369445,0.15524687,-0.99951595,-0.83952785,-0.19662714,0.9688518,0.20277801,-0.99996036,-0.88696915,0.9821499,0.7694634,-0.9958887,-0.88954157,-0.10909806,-0.88055944,0.6380027,-0.20473164,-0.9992,0.13815984,0.091025434,0.8335838,0.039135702,-0.72768015,-0.99409086,-0.8384128,0.61054116,0.9084823,-0.6475945,0.7986339,-0.7457428,-0.9961264,-0.987457,-0.99931794,-0.9392895,-0.67801934,0.048075568,0.8894701,-0.49501082,-0.9990652,-0.19157593,0.9818292,-0.23540708,-0.8354066,-0.7186402,-0.1749521,-0.9702871,-0.58707047,-0.93476725,-0.15080263,-0.9937848,0.9875327,0.001146912,-0.77592444,-0.9907075,-0.9672495,0.99814963,-0.998619,0.7761786,-0.9971164,0.77730453,0.19206475,0.9955763,-0.8552119,0.99999446,-0.132782,0.34151134,0.42092004,0.9920219,-0.8227355,-0.42101455,0.5609678,-0.9284307,0.5420117,0.99985427,0.9926997,-0.76175374,-0.9824763,-0.9374003,-0.668026,-0.74031734,0.5921161,-0.8455199,0.99989116,0.9981369,-0.7805693,-0.99912715,0.7181456,-0.23467736,-0.9278391,-0.49662477,-0.9999956,0.9534499,0.8258861,0.97669667,0.3828973,-0.17459506,-0.52256566,0.8797716,0.8147289,-0.95110166,0.7913888,-0.7271837,-0.024512146,0.7580203,-0.76326156,-0.9999822,0.92602104,-0.97688806,0.37655038,-0.98041975,-0.7511856,0.89930516,-0.54185057,-0.99458957,-0.96937233,-0.70382386,0.99924797,0.9985048,0.031569134,0.9985741,-0.5322638,-0.47540334,-0.9700122,-0.99353087,-0.5997432,-0.889678,-0.8365536,-0.7053995,-0.999823,0.32849777,0.72897226,-0.6591928,0.83851,-0.6443011,0.7108201,0.6504254,-0.12022075,0.33673543,-0.98579735,0.2895841,0.996031,0.7708757,0.08825023,0.9817177,0.9847748,0.95550466,-0.99298304,-0.95075196,0.77914876,-0.74326634,0.37114516,-0.49292812,-0.06446204,0.21623418,-0.9884822,-0.9359872,0.3386299,0.521261,-0.9999967,-0.99790436,-0.7144001,-0.8376734,0.68410176,0.7900669,0.7034094,0.98193187,-0.999978,0.6718059,-0.9781154,0.99489015,-0.99730915,-0.99879736,-0.18522334,-0.98174345,-0.98004097,0.97203386,0.77751887,0.29999512,0.93679905,0.6145328,0.016425828,0.97481227,-0.976868,0.006871801,-0.14203928,0.5287214,-0.6020756,-0.052042812,0.42994964,-0.7460777,-0.99448496,0.71774316,0.09662815,-0.8908945,-0.9929702,-0.34145308,-0.9418205,0.7590303,-0.6489808,-0.3174421,0.98056144,-0.79519475,0.92029226,0.9660722,-0.99988604,0.6681028,0.787907,-0.96254474,0.99955225,0.73770577,0.42271248,-0.29832405,0.08746687,-0.9611903,0.40989786,0.7921979,0.33142048,-0.844844,-0.99860567,0.96631926,-0.9171194,0.7027104,0.99703026,0.9931022,-0.91929376,0.75537485,0.66862667,0.631264,-0.34740046,0.48026234,0.39770675,0.2867356,-0.7709089,-0.48554316,0.98880666,0.97606343,-0.98588514,-0.37567565,0.73214585,0.94143283,0.80130714,0.9423756,-0.9858488,0.8028124,-0.16698977,0.1799262,-0.86853516,-0.7226974,0.24996156,-0.91089326,-0.3746163,-0.5891969,0.38536292,-0.88621986,0.67842656,-0.99718755,-0.98891234,0.14035825,-0.8659661,0.8302526,-0.99995303,0.584862,0.9463182,-0.42235962,0.6334374,-0.8474808,-0.76138926,0.85171044,-0.96551293,-0.57462066,0.8304197,-0.50706697,0.13687405,0.19988713,-1.0,0.8611852,-0.99962646,0.05938586,0.91389954,0.18138571,0.9992457,0.9707215,0.04490758,-0.31101957,0.99997884,0.9996,-0.99855083,-0.9538619,0.9592592,-0.39159858,-0.5791587,0.91959196,0.9778712,-0.5043723,0.8080295,-0.9978493,0.76143116,0.9750025,0.17291842,-0.3992198,0.18159868,0.4616481,0.424144,-0.4419039,0.9145093,0.78018516,-0.98518354,-0.7268105,-0.92170614,-0.99914026,0.9999819,-0.99988115,-0.99999833,-0.19797333,0.07899181,0.93668556,-0.9953511,0.7314536,-0.8801199,0.67557967,-0.98126435,0.9863496,0.47523993,-0.1718525,0.09861776,-0.90482277,-0.8359598,0.9901022,-0.99646,0.14977272,-0.28035748,-0.2967313,0.9332044,-0.99998707,-0.94218546,0.8561862,-0.09155258,-0.9931678,0.46560237,0.99296105,0.38447773,-0.34468284,-0.86522734,0.7077207,0.973419,0.967002,0.59026,0.99843144,0.0015118556,-0.46831354,-0.996356,-0.89218825,-0.9996474,0.9998754,0.9894001,0.07427345,-0.04958141,0.46814594,-0.99995327,-0.88293433,0.15899897,0.96678054,0.99674034,-0.8889727,0.86984617,-0.5215313,-0.5804947,0.938576,0.8173769,0.59725606,-0.6476416,0.6131158,0.9581201,0.99955225,-0.70027196,0.8210801,0.57735634,0.9996687,0.9864058,-0.51776737,-0.7324824,-0.62156963,-0.9559428,-0.90554523,0.22007506,0.9287685,-0.40749156,0.8437771,0.9861056,0.8461362,0.97799677,0.69490075,-0.72864693,0.8981634,-0.977027,-0.97005296,0.77198976,0.77487034,-0.99806803,0.022770321,0.5486824,0.9601575,-0.9999515,0.0067082825,-0.8320221,0.3777805,0.49927858,0.36068234,0.7822858,-0.9828795,0.85339373,0.016595589,-0.15367824,0.98836833,0.76363003,0.32305136,0.23694086,0.7333057,0.36911917,0.23354772,-0.88547516,-0.9340409,-0.9960198,0.82406336,0.8663566,0.95903015,-0.92583555,-0.9819651,-0.8801035,-0.9751008,-0.67440706,0.9887526,0.11944883,-0.9993269,-0.37227604,0.87346596,-0.89040095,0.6780715,0.9855552,-0.8421485,-0.79638004,-0.5250462,-0.98779553,-0.99980074,-0.78899735,-0.9996935,0.09031727,0.7332136,-0.9926569,-0.41650128,-0.059403114,0.9869023,-0.7875667,0.6426077,0.9162704,-0.95103955,0.7926331,0.9319448,-0.7705118,0.6980447,0.43681234,0.6716059,0.3600779,-0.9999917,0.1094775,0.88734865,0.23879449,0.59405327,-0.9996888,0.50790685,-0.554111,-0.6579283,-0.39960065,-0.3369499,0.24615291,-0.3570829,-0.2967583,-0.9953914,-0.992523,-0.9977365,0.9899201,-0.9950468,-0.99690944,0.9084661,-0.97234225,-0.9985825,0.99859947,-0.73491585,0.9937241,-0.99353033,-0.9971663,0.57931536,0.97188425,0.14879724
bicycle,-0.708435,0.76720124,0.31923237,-0.85746175,-0.12563474,-0.036559194,-0.99996525,-0.82768375,0.95511866,-0.67295593,-0.29340625,0.99669206,-0.9999962,-0.63639194,0.9786083,-0.32569844,-0.9794296,-0.9907611,0.2726327,-0.9761915,-0.9996156,-0.8726422,-0.013577146,0.98034596,0.43315244,-0.9752095,0.749113,0.9915814,0.77260035,-0.9991952,0.41862538,-0.80343837,-0.09016818,-0.54086065,-0.5883969,-0.9995288,-0.36281466,-0.27066988,0.022892347,-0.71275085,-0.8755246,-0.99259317,0.6564394,-0.9135769,-0.33066112,0.3028288,0.32971895,-0.9803762,-0.9571017,-0.9930164,-0.99985677,-0.45970073,-0.9946078,-0.6393401,0.5321553,-0.74904865,-0.9932479,-0.75149506,0.97984564,-0.64113957,-0.307018,-0.02370081,-0.44429576,-0.9913777,-0.76448137,-0.9514754,0.966897,-0.9905519,0.9778354,-0.4094001,-0.59997463,-0.9656882,-0.98993576,0.99930674,-0.5557514,0.7712509,-0.7796165,0.38783228,-0.9812064,0.99995303,-0.15299955,0.99996144,0.8894553,0.099623114,0.0063768206,0.9978073,-0.8017732,-0.63844883,-0.90740985,-0.9787721,0.2459079,0.9703845,0.9983166,0.37601215,-0.9997026,-0.59478027,-0.18909793,-0.5432111,-0.081000715,0.20374192,0.9908283,0.99952763,0.011781125,-0.30388132,0.75666034,0.7327148,0.66767657,0.7770228,-0.9999721,0.25223637,0.92995024,0.9101972,-0.79023236,0.13641231,0.5884719,0.77544963,0.9607311,-0.45501724,0.15347391,0.8041926,0.84876525,0.95280033,0.3009082,-0.99787056,0.699389,-0.9869883,-0.8395408,-0.9822549,-0.4517944,0.5783584,-0.30047804,-0.059777956,0.98805875,-0.27773002,0.96181375,0.9161814,-0.25592896,0.9701237,0.27876586,0.62007207,-0.5145584,-0.9966784,-0.23573272,-0.99696195,-0.23838116,-0.5779359,-0.9978329,-0.7943872,-0.36810243,0.66487384,0.4690133,0.5105038,0.3440628,0.85436136,0.873461,0.46874577,-0.999209,-0.8392213,0.97731423,0.5920678,0.080152564,0.96766907,0.94035244,0.98321223,-0.95909655,-0.5441727,0.24909806,-0.94535166,-0.31679082,-0.011774354,0.64127076,-0.71851224,-0.7033696,-0.9332556,0.080143616,0.59295934,-0.999998,-0.9992699,-0.6247638,-0.15226899,0.87000024,0.7885465,-0.12258852,0.42571437,-0.9998248,0.8167916,-0.99044085,0.999937,-0.9282433,-0.8374663,0.74813855,-0.9910442,-0.9767055,0.97841555,0.81665605,0.34719756,0.96836,0.7913481,-0.58785385,0.9094739,-0.9716935,-0.04031477,0.49891266,-0.020366669,-0.9155341,0.15786842,0.78635436,-0.48411074,-0.4611388,0.6542962,-0.40873975,-0.8644679,-0.99555886,-0.33139607,-0.3165518,0.811057,-0.7282685,-0.7333962,0.99713963,-0.72775257,0.94816756,0.61459786,-0.99985194,0.009099806,0.035582174,0.030067533,0.998005,0.48745167,-0.8658028,0.2697109,0.6035221,-0.51439977,0.70832956,0.9724073,-0.90009725,0.32998112,-0.94478774,0.97883564,0.734372,-0.9219618,0.47526264,0.91517943,-0.7529787,0.7925598,0.96802723,0.77736217,-0.047754887,0.9502115,0.54484123,0.03815831,-0.56116676,0.9290918,0.97503984,0.8304576,-0.97525585,-0.6777334,0.7289265,0.8782703,0.8894262,0.8802004,-0.50102395,0.9465555,-0.3053357,0.33241674,-0.71011096,-0.63408816,0.5925854,-0.44357902,-0.26436904,-0.7725794,0.82703704,0.089191966,0.8281289,-0.9963978,-0.9855251,0.97337484,-0.37931126,0.214139,-0.9998817,0.5007422,0.35757306,0.5915752,0.8531073,-0.05559038,-0.89184475,0.9996328,-0.8848523,-0.37828448,0.84853053,-0.49537608,-0.15833913,0.9194016,-0.9999994,0.7046773,-0.90089834,0.9117286,0.869026,-0.47339115,0.9992457,0.88878846,0.65096,0.23703004,0.9995391,0.99244785,-0.9965605,-0.8833997,0.93092275,-0.9693805,-0.99680185,0.9531149,0.45923913,-0.7406396,-0.103856854,-0.9862689,0.19538668,0.9978588,-0.058241688,-0.8831756,0.38538817,0.45664215,0.8617789,-0.881176,0.92023367,0.47517633,-0.99625874,-0.7156155,-0.75566787,-0.9932089,0.999948,-0.9994961,-0.9998971,0.88423777,-0.7381522,0.973939,-0.9827369,0.299222,-0.86522835,0.06486667,-0.96668607,0.3293537,0.9501393,-0.37821823,-0.106234014,-0.9207709,-0.9493798,0.99049157,-0.8461965,-0.5195383,0.19471984,0.63198113,0.99870485,-0.9995988,-0.9920147,0.8200852,-0.9707934,-0.9668889,-0.78712934,0.97388625,0.21656486,0.0464397,0.8912861,0.8760774,0.99579626,0.9536488,-0.96376485,0.9901914,-0.9932546,0.8367088,-0.9985202,-0.969874,-0.9998203,0.96771103,0.951903,-0.8033386,0.95154893,-0.48494557,-0.9999059,0.0019015942,0.60561174,0.7752078,0.9915217,-0.97140837,0.60182035,-0.4556448,-0.99277705,0.97464377,0.4384603,0.8911748,-0.023855394,-0.18464147,0.9945405,0.99800843,0.89164096,0.8660879,0.8943236,0.8596247,0.4542119,0.66876,-0.91148734,-0.32220945,-0.99024546,-0.9006424,0.9526747,0.30748284,-0.94465953,0.19295257,0.86629176,0.8433436,0.9427062,0.51988965,-0.7678148,0.86849195,-0.84500766,-0.96611327,0.9952792,-0.29633874,-0.9960111,-0.72314864,-0.5293864,0.99599385,-0.9988739,-0.54463524,-0.86254185,0.08593195,-0.4965907,0.59477806,0.4402355,-0.33672142,-0.054327838,0.89151156,0.30533984,-0.5640432,-0.032948185,-0.45604765,-0.31189275,0.20076874,-0.082926236,-0.038658146,-0.20537497,-0.7183449,-0.9996332,0.7284597,-0.11598744,0.8161573,-0.931133,-0.9396726,0.026710516,-0.64216894,0.97512865,0.9135718,0.6083861,-0.95124716,-0.9837109,-0.8281266,-0.94768006,0.5810863,0.977821,0.8060944,-0.46584004,-0.82196105,-0.9649006,-0.99598354,-0.8709132,-0.93156564,-0.86301243,0.025906753,-0.9482376,0.37240767,0.76922643,0.93013537,-0.8634008,0.7792603,0.8315541,-0.92123646,0.99003243,0.6135895,-0.8162531,0.9127152,0.82497096,0.99763095,-0.6475672,-0.9999978,0.515512,0.10983224,0.07972839,-0.37073502,-0.9972878,0.23651811,0.1598495,-0.16740085,-0.66464025,0.32722375,-0.821326,-0.3646525,-0.3087371,-0.99795824,-0.92386174,-0.99808866,-0.28408194,-0.9124411,-0.9782073,0.925845,-0.9815845,0.48469493,0.97159284,0.0623688,0.20612897,-0.935712,-0.9997858,0.5539416,0.9951665,0.85256124
bicycle,-0.77295357,0.9932997,0.21292883,-0.9822364,-0.052594412,-0.24536681,-0.9986162,-0.055207085,0.9888801,-0.60410106,-0.31547502,1.0,-1.0,-0.9996014,1.0,-0.76771396,0.5828645,0.90829134,0.559923,-0.6068962,-0.9999977,0.9227281,-0.9259555,0.96264845,0.53475434,-1.0,0.03164288,0.997134,0.95020366,-1.0,-0.93010837,-0.9987993,-0.6771537,0.902306,0.22165734,-1.0,0.98875827,0.25639975,0.8976925,-0.3402235,-0.96698385,-0.9991299,-0.9865042,0.05766114,-0.6145131,-0.35486037,0.9967541,-0.93518037,-0.99770993,-0.8221496,-0.99988544,-0.25956458,-0.96828586,-0.32682455,0.9977877,-0.96901286,-0.93508095,0.47014192,0.8988319,-0.6093123,-0.99741995,-0.9765432,0.27338773,-0.9804638,-0.33931634,-0.98859686,0.39311972,-0.9999918,0.9617415,0.80685574,-0.99672014,-0.9992867,-0.9578538,0.99968374,-0.8204338,0.1992461,-0.8575714,0.9998083,-0.99695265,0.9999989,-0.98512286,0.9999988,-0.24244773,-0.4947919,-0.78905505,0.99855435,-0.985676,-0.13498439,-0.98857534,0.0044409414,0.8004251,-0.044868466,0.9995747,-0.86691755,-0.9985822,0.079273716,-0.46354046,-0.7561048,-0.94204056,-0.80815756,0.9978682,0.99999106,0.8955074,-0.99647474,-0.41942343,0.9857571,0.90509784,0.50334156,-0.9999999,0.9976967,0.97684807,0.9999986,-0.88812405,0.8837252,0.9997065,-0.2605458,0.84726727,-0.99951744,0.99979836,-0.5403177,-0.9823499,0.8376303,0.9468751,-1.0,0.97758937,-0.9856595,-0.95957166,-0.9972823,0.59596074,0.9807874,-0.8037228,-0.99765533,-0.9842523,-0.9998784,0.9999985,0.959979,0.3572258,0.99719656,-0.96360946,-0.95033705,-0.9926701,-0.9972844,-0.89887077,-0.99839723,0.24328,-0.9394315,-0.9999984,0.7486725,0.96142155,0.27023557,0.9081537,0.7508576,0.8832685,0.13882315,0.99413496,0.99848205,-0.9218995,-0.9985162,0.99774927,0.9931285,0.4718225,0.97361463,0.9983109,0.9995079,-0.9802915,-0.9213261,0.99817395,-0.9999969,-0.8975704,-0.7165186,0.16246477,-0.66106814,-0.9997146,-0.93550736,0.99449366,0.9919134,-1.0,-0.97652936,-0.91415757,-0.8050365,0.9993286,0.7912093,0.21372153,0.99770427,-1.0,0.98750544,-0.99023515,0.9299905,-0.80192614,-0.9962333,0.5598503,-0.9846711,-0.9324835,0.99363846,-0.5919705,0.96495503,0.9390624,0.9038229,0.64425474,0.99942386,-0.76377714,0.60230947,-0.70915717,-0.5252941,-0.9712489,0.9900665,-0.8244387,-0.97849935,-0.35556713,0.95744205,-0.99203074,-0.9686031,-0.9999103,-0.92381835,0.5632972,-0.46504867,-0.9918762,0.0871574,-0.4078267,-0.6512503,0.92565686,0.77825904,-0.9999989,0.8624174,0.9952393,-0.9968944,0.9999817,0.0955556,-0.20912176,-0.8298591,-0.97525,-0.9884002,-0.99188566,0.99952537,-0.90425175,0.97117406,-1.0,0.15613893,0.96941954,0.9356989,0.99163246,0.8012253,0.2342841,0.9997243,0.9963651,0.99728715,0.9831312,0.9107072,0.91438055,-0.8743707,-0.9440627,0.5245238,0.9998189,0.90322727,-0.9927518,0.39837736,0.9976127,0.38580644,0.9377009,0.56991553,-0.9720013,0.99958616,-0.69445324,0.93977296,0.90417635,0.7183964,0.7708916,0.09793105,-0.9761702,-0.98810756,0.9991802,-0.6199883,0.9568341,-0.999133,-0.9902682,-0.3348614,0.9767639,0.9936803,-0.9999974,0.7528748,0.9970616,-0.97327423,0.9638009,-0.93973583,-0.999985,0.9255218,-0.999353,0.9122516,0.9686719,-0.99968135,-0.7367264,-0.72281146,-1.0,0.11082056,-0.9915102,0.999315,-0.3422057,0.92197835,0.99955654,0.9999975,0.9324277,-0.85639393,0.9999986,1.0,-0.9998733,-0.96959484,0.9998959,-0.96719,-0.98389506,0.99921685,0.2805934,-0.9643194,0.99876153,-1.0,0.9896886,0.9978724,0.7383831,-0.9916162,-0.457861,-0.71094847,-0.02823375,0.5946445,0.55559605,0.35979733,-0.85005647,-0.9096447,-0.99850005,-0.9964359,1.0,-0.99999964,-0.9995451,-0.72776264,-0.88018066,0.9999979,-0.9998884,0.6922073,-0.929703,0.41379103,-0.99539816,0.045338664,0.8455439,-0.96400684,0.97859776,-0.98697984,0.9820348,0.99772805,-0.9682125,-0.61193335,0.118970454,0.99962443,0.988018,-0.99999213,-0.9859079,0.5183415,-0.70475644,-0.87584585,0.9636713,0.99332947,0.9758694,-0.9965659,-0.9985479,-0.85709083,0.9786983,0.9982034,0.9101095,0.9998992,0.92939216,0.86343986,-0.8316932,-0.85057753,-0.9992133,0.9999951,0.9980719,0.90664715,0.999969,-0.981758,-1.0,0.39509612,0.90885234,0.9648048,1.0,-0.99943995,0.85359895,-0.76535565,-0.9996386,0.4190677,0.8238647,0.9995097,-0.7907668,-0.8788163,0.9999937,0.9999841,-0.8507503,0.9929655,0.8716435,0.9997721,0.9747183,0.4898471,-0.99773675,-0.7653706,-0.9999792,-0.9723502,0.6120575,0.64128464,0.9960393,0.8262866,0.72652376,0.987938,0.2889284,0.39343706,-0.5186064,0.7976809,-0.99666727,-0.6274212,0.654787,0.99974734,-0.9998843,0.6500002,0.968594,0.9973051,-0.99056524,-0.8899727,0.85825527,-0.058389954,-0.8198113,0.91696334,0.9914518,0.83110356,0.2263069,0.9895379,-0.23169158,0.97715604,0.9813271,0.25351194,-0.49749193,0.9449991,0.9892629,0.7357811,-0.8038983,-0.5020287,-1.0,0.98227936,0.9913473,0.9322407,-0.9939733,-0.99998516,-0.088409066,-0.93744385,-0.4046551,0.99011344,-0.3596973,-0.9999995,-0.9968766,0.9819941,-0.99991393,-0.54645115,0.981016,0.06905397,-0.9181015,-0.99999255,-0.99971455,-0.9998479,-0.99997044,-0.9950539,-0.009560469,-0.2627695,-0.99923474,-0.9984955,0.9960439,-0.66951287,0.9860109,0.99716914,0.9999987,-0.98351234,0.97779745,0.9222156,-0.6231445,0.94791543,-0.87414646,0.9994319,0.8357599,-0.9999982,0.9998648,1.0,0.57659847,-0.8290002,-1.0,-0.9991321,-0.5335924,0.82227594,-0.99541044,0.9773408,-0.81188405,-0.9630363,-0.4239563,-0.9955482,-0.91723406,-0.997811,0.9976384,-0.9999427,-0.51409775,0.99861157,0.061843496,-0.92792857,0.9999128,-0.99242115,1.0,-0.8676029,-0.99998957,0.95554054,0.99983406,0.36757097
bicycle,-0.9965589,0.9998716,-0.44046816,-0.58281964,0.9517559,0.19730873,-0.99067736,0.5997236,0.8805591,-0.9418355,0.75687563,1.0,-1.0,-0.99115634,1.0,-0.039488062,-0.97133416,0.83724815,0.96321964,-0.38644826,-0.9997528,-0.9552923,-0.92473286,0.9394944,0.9376528,-0.99999696,-0.64574236,0.9844474,0.99866486,-0.9999803,-0.34627676,-0.9606512,-0.9925148,0.9770167,-0.9429443,-0.9999571,0.9344275,-0.83822894,0.66481024,0.71325666,-0.79539055,-0.99971527,-0.98006666,0.34568316,0.96518743,0.5108441,0.9805871,-0.8568845,-0.95500416,-0.49098936,-1.0,-0.9983654,-0.99806124,0.3401604,0.9956008,-0.98536295,-0.9953066,0.7588638,0.9962754,-0.6117091,-0.99661183,-0.017196411,0.9711483,-0.99546593,-0.8406635,-0.98345315,0.900942,-0.9992758,0.9987961,-0.06928607,-0.6933075,-0.9966256,-0.9693517,0.99919724,-0.9993751,0.88452363,-0.5194211,0.99592686,-0.8537607,0.9999674,-0.98504806,1.0,0.99630696,0.81024677,-0.89704216,0.9996821,-0.9006188,0.23065132,-0.5786774,-0.13698244,-0.36923257,0.9999813,0.9826528,-0.8167427,-0.9938867,-0.9725399,-0.12805861,-0.8945483,0.12774946,-0.20710099,0.99276507,0.9918056,0.5067911,-0.99626654,-0.16662855,0.9451528,-0.8940104,-0.7693824,-0.99999666,0.9901109,0.9847973,0.99979734,-0.7146128,0.93226296,0.6988952,0.999706,0.97337335,-0.99979657,0.78206897,0.2022325,0.9193245,0.8802121,-0.98894894,-0.9999778,0.9559614,-0.97752255,0.6225322,-0.99317735,0.69026554,0.9659171,0.018012816,-0.9999412,-0.9997568,-0.35277975,0.99954724,0.95753914,-0.6821782,0.9999831,-0.20266509,-0.8703392,-0.90430504,-0.9981327,-0.7877913,-0.7412129,-0.8325673,-0.05196184,-0.9999927,0.8574482,0.30924633,0.7114125,0.5364975,-0.47942516,0.8900298,-0.1962042,0.86310786,0.9799284,-0.9894867,-0.77911687,0.99986285,0.6555407,0.95308787,0.9996413,0.9999952,0.99962723,-0.9011029,-0.99435294,0.98547447,-0.9968332,-0.9875148,-0.97737586,0.39701098,0.780623,-0.99874,-0.8717086,0.9014733,0.46453407,-1.0,-0.99948025,-0.76322436,-0.87391585,0.9456187,0.6432994,0.54404944,0.99822605,-0.9999969,0.36120516,-0.9596813,0.9989202,-0.58739185,-0.9970766,0.934841,-0.9823058,-0.97214276,0.9975533,0.37151524,-0.9895934,0.9944219,0.2549309,-0.60310924,0.99917185,-0.972553,0.5164922,-0.06491782,-0.7415623,-0.18025236,-0.74125916,-0.6986248,-0.75057465,-0.9999294,0.38738596,0.22499414,-0.98690647,-0.99603784,-0.6124436,-0.91782326,0.83193153,-0.70614266,-0.14702488,0.6044538,-0.94225395,0.99929905,0.8647163,-0.9999903,0.7267748,0.99246424,-0.9250865,0.99965686,0.13769256,0.9059226,-0.80073565,0.19810572,-0.98923296,-0.83616686,0.9946947,-0.9886675,0.96295756,-0.9999996,0.77436006,-0.6546637,0.718142,0.99992514,0.99789023,0.18003555,0.9873991,0.77587265,0.957176,0.22454394,0.81816787,0.8323643,0.78248614,-0.964572,-0.8154684,0.99978036,0.8572219,-0.99852854,0.8945666,0.8189379,0.8566423,0.76806074,0.6353189,-0.9982729,0.9976009,-0.92081594,0.5869796,-0.42107466,0.5969343,-0.9788118,-0.19436868,-0.9128424,-0.9198186,0.75294423,-0.8549362,0.9807878,-0.99999213,-0.99384797,0.12941816,-0.9634793,0.9776541,-0.9999996,-0.42026195,0.99353296,-0.5400107,-0.45720068,-0.6752572,-0.93705684,0.750287,-0.8359878,0.7923213,0.9389767,-0.7277453,0.9984052,-0.5499963,-1.0,0.94026303,-0.9947265,0.600231,-0.6891628,-0.084938295,0.99937105,0.9999542,-0.18687008,-0.9824825,0.9997804,0.9999975,-0.999487,-0.9961607,0.99643606,-0.99397945,-0.9964909,0.87792087,0.96230024,-0.17312258,0.85418695,-0.9999637,0.9688176,0.9539225,0.7778271,-0.9691883,-0.84114283,-0.8452792,-0.44323546,0.3967019,0.89900434,0.5582515,-0.78915036,-0.8939341,-0.94910634,-0.98437476,0.99999785,-0.999947,-0.99999166,0.78315496,-0.7092343,0.999308,-0.99999446,0.9167466,0.28764427,0.095953256,-0.98336244,0.99846065,0.952904,0.6499147,0.8294286,-0.9750191,-0.4045614,0.9998107,-0.99223614,-0.8633706,0.7299783,0.9732037,0.9670374,-0.99999636,-0.9674655,0.9737884,-0.9577174,-0.91590667,0.50741357,0.99994534,0.95231146,-0.8235691,-0.9122326,-0.21053194,0.99240685,0.99955964,0.9269998,0.99996907,-0.33883432,-0.12551957,-0.96802557,-0.6130702,-0.9973441,0.9999999,0.9993786,0.9883654,0.88181347,-0.6338735,-0.99978757,0.01649823,0.75619245,0.75749964,0.9995307,-0.9979003,0.94431806,-0.9778216,-0.9958533,0.56936604,-0.1845555,0.9531507,0.43878114,0.24819334,0.9924562,0.999706,-0.90797764,0.91732746,0.44033456,0.9999994,0.9999898,-0.22663769,-0.98258644,-0.44882742,-0.9871636,-0.9950456,-0.2173489,0.56986076,0.47484708,0.65423155,0.99358994,0.9980441,0.97673345,-0.49739715,0.5574654,0.967543,-0.97070116,-0.6939042,0.9908353,0.99749357,-0.99393654,0.36298874,0.9392288,0.9525102,-0.99899644,-0.493924,-0.99714553,0.5354824,-0.7937896,0.9569135,0.05708785,-0.996421,0.97205645,0.371933,-0.10200818,0.92209953,0.9109214,0.9228178,-0.86097103,0.44116575,0.922936,-0.6593086,-0.9694564,-0.94273174,-0.9999823,-0.6590636,0.9447227,0.76538086,-0.9717864,-0.99931943,-0.99941504,-0.8638768,-0.4279139,0.8292532,0.1935559,-0.999989,-0.6339532,0.959499,-0.99920547,-0.5970431,0.9942457,0.018080303,-0.8946589,-0.9999077,-0.9484602,-0.99994767,-0.9855033,-0.99921066,-0.1738257,-0.39967814,-0.98924494,-0.99216473,0.7959729,0.9530101,0.5949239,0.98916686,0.99844193,-0.9567226,0.9797312,0.991936,0.6097751,0.978812,-0.07281387,0.99352264,-0.18531473,-0.99999917,0.99153054,0.9999799,0.58987314,0.46066177,-0.99999565,-0.50442576,-0.6402671,0.28869882,-0.5378969,0.99783415,-0.8617004,-0.72378415,0.072530255,-0.9972708,-0.9654564,-0.9894888,0.99994165,-0.9998489,-0.9409134,0.9997047,-0.93387455,-0.81602997,0.9828072,0.24048686,0.9999994,-0.99421453,-0.9997617,0.89082813,0.9699142,0.11592482
bus,-0.59817314,0.94803905,-0.21671228,-0.7855709,0.94750375,-0.48209834,-0.34752923,0.9687088,0.99843127,0.08240067,0.8913081,0.99937993,-1.0,-0.42382234,0.9954287,0.8065938,0.5343586,-0.95285654,-0.96906614,0.28867435,-0.9377002,-0.14692445,-0.4382691,0.7588828,-0.29962784,-0.99711984,0.6994526,0.3978069,0.95995295,-0.9655249,0.85987836,-0.3769457,-0.99641985,-0.6232126,-0.4870771,-0.99961984,-0.9732939,0.11534429,-0.9035003,0.8890338,-0.2243586,-0.9927374,-0.55933714,-0.35360396,-0.7293842,0.7602924,-0.3461392,-0.98364264,-0.5128685,-0.99884987,-0.96915084,-0.87744653,-0.98868656,0.8959811,0.10883893,-0.23049112,-0.995685,0.11516139,0.99388766,-0.4626928,-0.9288358,0.095093496,0.2069138,-0.38472605,-0.94981086,-0.034954816,0.9890898,-0.7261098,0.96457195,-0.023853423,-0.9056144,-0.70366377,-0.8830892,0.9727887,-0.8104602,0.6607237,-0.9489727,-0.08172595,0.39472148,0.9746224,0.29100534,0.9994802,-0.3884088,-0.016045444,0.5691947,0.21302448,-0.21062328,0.9338632,0.38705662,-0.9993266,0.5448804,0.9993869,0.9723377,-0.9768383,-0.325102,-0.29061902,-0.80429375,0.2663527,0.62134033,0.9913821,0.9628943,0.9990873,0.8388392,-0.908197,0.5026007,0.4083123,0.97377366,-0.7383023,-0.99082136,-0.8318322,0.95695096,0.9996214,0.5978998,0.941249,0.43956095,0.7208173,-0.5598813,-0.6878829,0.9334324,0.452324,-0.021203315,-0.8800786,0.216868,-0.99672,0.8519378,0.32004514,-0.341257,-0.73373574,-0.91853577,0.8976352,0.4481111,-0.99688894,-0.97902983,0.5398031,0.984395,0.6032245,-0.62141675,0.9719002,-0.8389302,0.20042042,-0.57322544,-0.23390135,0.99473244,0.64581454,-0.90925324,-0.35090703,-0.99700934,0.6998531,-0.31200343,0.65218407,-0.9375857,-0.13374262,-0.9682703,0.83442676,0.9949962,0.9298925,-0.9826406,-0.9815838,0.99621314,0.52076733,-0.46880755,0.8140635,-0.2672699,0.99970555,-0.8127812,-0.34373623,0.8657221,-0.45872182,0.27167854,-0.9935854,0.89237654,-0.99773407,-0.038967445,-0.97902596,-0.1457903,0.7575186,-0.9999886,-0.9754418,-0.13045414,0.69837373,0.7793491,-0.25984353,0.9215067,0.81076634,-0.9985024,-0.3256665,-0.9120018,0.99370545,-0.97654206,-0.90412194,0.82165504,-0.82342964,0.41396487,0.7407324,-0.47189057,0.7958929,-0.78871024,-0.98241484,0.81183386,0.98953265,0.8981104,0.15852875,-0.57149076,0.7584272,0.46778154,0.13396229,0.8258296,-0.51030195,-0.9933078,0.013536639,-0.9586401,-0.31290504,-0.9860587,-0.8155983,-0.7890791,-0.44894013,0.23870726,0.3306398,0.9670703,0.8338135,0.9534831,-0.976865,-0.6899035,0.69287395,0.9727125,-0.5354044,0.9998432,-0.8595814,-0.14771253,0.08862806,0.970902,0.762221,0.99187756,0.25902018,-0.07069563,0.016734468,-0.9996451,0.9943899,0.94905555,0.55291164,-0.12873393,0.9998692,0.7349529,0.864071,0.9799751,0.62431073,0.0145304045,0.99193037,-0.64563566,-0.7797807,0.3385319,0.12939045,0.98778576,-0.6906003,0.18422516,0.049684033,0.9706434,0.8729077,-0.7856641,0.8696141,-0.90967005,-0.9136126,-0.9872421,-0.8472973,-0.4353494,-0.76607156,-0.86510366,-0.97738415,0.7256591,-0.7170612,0.9092764,-0.299075,-0.5275194,-0.99987316,-0.954443,0.9716165,0.97562134,0.96805114,-0.99990076,-0.5478436,-0.39002705,0.30753928,-0.99313897,-0.30399746,-0.87448853,-0.81275564,0.472874,0.898563,0.24559344,0.92332846,0.22146091,0.3021421,-0.99999374,-0.38209665,-0.9211213,0.9705548,0.4970009,-0.3506681,0.9999725,0.9447461,0.8642521,-0.9998461,0.9925797,0.6922972,-0.99457735,-0.66416746,0.90363616,-0.24699624,-0.7082311,-0.04173195,0.92194825,-0.5611505,0.8078116,-0.93139136,0.60044986,0.7633396,-0.86644244,-0.9996391,-0.85045755,-0.8630852,0.44451556,-0.20255315,0.82361335,0.6908692,-0.9355339,0.92000103,-0.43815836,-0.9468995,0.99897754,-0.9967596,-0.9999436,0.5872674,0.80609304,-0.8929052,-0.99456125,0.8235638,0.97978956,-0.575409,-0.8243123,0.9960885,-0.174224,-0.85071135,-0.48553795,-0.99671435,-0.04114473,0.96887094,-0.39244804,-0.18552695,0.5910913,0.8809705,0.99975204,-0.99991006,-0.9357573,0.990328,-0.9655164,-0.9797976,0.30872962,0.9940511,-0.72903025,-0.25338304,-0.9614506,-0.83708173,-0.51412857,-0.6005791,0.80553275,0.9999278,0.8882778,0.06718661,-0.9117618,-0.99767363,-0.9998504,0.99127036,0.9989241,0.6989418,-0.7387448,-0.8746001,-0.9424043,-0.77056336,-0.99241436,0.2968385,0.98529845,-0.92196816,0.8505471,-0.9581682,-0.95962524,0.9656944,-0.5380471,0.9906094,-0.23630479,0.9534261,0.99488795,0.81939864,-0.05417636,0.19179502,-0.4881889,0.9537689,0.9992125,0.48348278,-0.7770331,-0.28614938,0.15391584,-0.9465983,-0.210011,-0.69126785,0.9032118,-0.889965,0.8811427,0.29617715,0.72837037,-0.33591288,-0.7728324,-0.44558093,-0.7666698,-0.9999962,0.9883333,-0.31285664,-0.9959082,0.70261455,0.9073972,0.65602124,-0.8837675,-0.6368774,-0.117125124,0.70017457,-0.7251415,-0.14035779,-0.99623245,-0.02480196,0.9683182,0.11705711,-0.9321173,0.99978423,-0.5037426,0.0031135574,-0.053866968,0.88077426,0.07447787,0.2911217,-0.9331843,-0.88670367,-0.92608017,-0.18789333,0.7903968,0.33587563,0.5848998,-0.92608005,0.74805707,0.9937593,0.850894,-0.6819666,-0.32851094,-0.99999267,-0.99977124,-0.9078645,-0.99845976,0.7465167,0.009832392,-0.579194,-0.28640485,-0.99984974,-0.8322418,-0.9661401,-0.4600582,-0.50369596,-0.9865293,-0.72874564,-0.99976236,0.28123796,0.69791025,0.9997901,-0.5662631,-0.9676228,0.89399254,-0.8244123,0.7503865,0.995714,0.5609002,0.5547226,-0.3872002,0.78313106,0.08116494,-0.99667114,0.6299009,0.96041447,-0.6989129,0.18154234,-0.99983597,-0.9098757,0.98944014,-0.70179075,-0.08978868,0.80022323,-0.79665196,0.9473432,0.6614747,-0.8908849,-0.4761974,-0.9751297,0.9981262,-0.72174525,-0.99995315,0.9416771,-0.033664234,-0.99291915,0.992723,-0.69903505,0.98120713,-0.20650975,-0.9991147,0.45036435,-0.5085547,0.34346887
bus,-0.35089663,0.9971444,-0.8319257,-0.9183592,0.9975563,-0.38924932,-0.9909393,-0.049435038,0.512846,-0.073531836,-0.14221033,0.99999535,-1.0,0.4800907,0.99807715,-0.97353214,0.13866006,-0.9512809,-0.9361897,0.8623584,-0.78501153,0.8487574,-0.86436963,0.76036656,0.05058369,-0.948547,0.14144252,0.9896929,0.36799344,-0.7232906,0.6417803,-0.9543585,-0.999954,-0.745983,-0.07311168,-0.99940217,-0.95545983,0.1839082,-0.98548007,0.96894795,-0.6813057,-0.79831886,-0.7877237,0.32143918,-0.9906089,0.9786024,0.6129671,-0.9316301,0.7233243,-0.99995404,-0.9720833,-0.99899906,-0.9884203,0.9685914,0.9605226,-0.88349545,-0.99849445,-0.14317152,0.9943549,-0.99815357,0.7606562,0.9352413,0.99518144,-0.9978024,-0.62665224,-0.9972048,0.98793244,-0.4107051,0.9795647,-0.9100872,-0.9659494,-0.9998939,-0.4995236,0.9884326,-0.3969191,0.6601189,0.8121087,0.7635617,-0.65557927,0.9928111,0.7759472,0.99858814,0.7332951,-0.011652626,0.9968293,0.9531419,-0.7423252,0.12189476,0.7467005,-0.9999995,0.9125494,0.96731806,0.440193,-0.99695194,0.39013505,-0.8563342,-0.85369354,0.61241734,-0.33043784,0.9505209,0.31711772,0.053837433,0.99910665,-0.99643624,0.65057707,-0.45195663,0.9980774,-0.99272853,-0.99739885,0.629569,-0.60712606,0.36740223,0.9920778,0.9311349,-0.5444108,0.54583395,-0.7976713,-0.9217626,0.51553744,-0.95371723,0.05056904,-0.9915396,-0.7617178,-0.9917762,0.5627511,0.51943344,0.96544623,-0.9912612,-0.7207982,0.90956426,0.55939406,-0.9998594,-0.47497666,0.94419897,0.9938862,-0.01616012,-0.97469467,-0.80027115,-0.25465238,-0.7487812,-0.42906526,-0.9966096,0.9988895,-0.11668979,-0.9251728,-0.80088323,-0.99939746,0.99912417,-0.42639494,0.9400706,-0.97578007,-0.8909752,-0.99974424,0.4351034,0.25563344,0.8144759,-0.99429363,-0.7011782,0.99898595,0.9109014,0.7436733,0.95131505,0.2738184,0.9766783,-0.45023137,-0.5845931,-0.3694331,0.41279978,-0.4908922,-0.34167716,0.8785538,-0.9983318,-0.9934754,-0.94949967,0.75854117,0.21556185,-1.0,-0.82055587,-0.5816042,0.56873333,0.9490567,-0.36735827,0.29115123,0.92635375,-0.9910281,0.6173107,-0.9998348,0.99656445,-0.94585663,-0.7968321,-0.13358869,-0.16922978,-0.90351415,0.9999471,0.25082013,0.8452326,-0.9996486,-0.9995693,0.99055976,0.8667951,0.687994,0.9362959,-0.41790593,0.96974605,0.385988,-0.21935484,0.9554059,0.9209637,-0.9994319,-0.6772857,-0.21908067,-0.75333697,-0.9977083,-0.7389052,-0.61806434,-0.9796103,0.72328454,0.63267994,0.6867002,0.7436908,0.9216341,-0.999575,-0.6069107,0.9964108,0.7037367,-0.55523187,0.9996305,0.21728972,-0.9991286,0.9985464,0.7494408,-0.78966534,0.5040696,0.9712874,-0.16476259,0.24518868,-0.94282836,0.9913601,0.9483488,-0.552276,0.7991376,0.99575603,0.9834359,0.6785439,-0.70203155,0.8552491,0.25991625,0.9990825,0.7916933,0.8643742,0.15656966,0.9306936,0.9818812,-0.15075009,-0.7050426,0.9181827,0.7860104,-0.09767549,-0.40337053,0.99927366,-0.46958613,-0.27506718,-0.99554044,-0.6677303,-0.75287366,-0.7888872,0.56690276,-0.99809825,-0.9299322,-0.99725837,0.40017506,0.6790428,0.8696557,-0.99995166,-0.9976278,0.9578164,0.9999149,0.49220875,-0.93194807,0.917204,-0.9226092,0.9942195,-0.99842745,0.69318426,-0.46480432,-0.5379783,-0.8578354,-0.22810373,0.37063286,0.296388,-0.2933207,0.9781271,-0.99973726,0.917944,-0.9948537,0.9650256,0.73447716,-0.92066777,0.9946529,0.9925358,0.8623305,-0.93930554,0.99174404,0.9992182,-0.053065397,-0.83626974,0.9953352,0.92418516,-0.9929476,-0.6395283,0.7860151,-0.023062337,-0.91590565,-0.7863555,0.8625744,-0.4350168,-0.9995372,-0.99996513,-0.94096583,0.48278156,0.98846906,-0.77790844,0.99921954,-0.47390756,-0.15469047,0.34684014,0.8933607,-0.8217726,0.9999702,-0.79084074,-0.9999561,-0.76470006,0.7008498,-0.6308352,-0.99016327,0.7133795,0.9828315,-0.8683784,-0.9699719,0.99717927,0.45025104,-0.96734476,-0.10768536,-0.8563936,0.41363952,0.999553,-0.90454656,-0.3152821,0.8285548,0.79602283,0.99979043,-1.0,-0.9119878,0.9996598,-0.921409,-0.2541994,0.07890928,0.9996837,0.35572144,-0.92567563,-0.9517701,-0.98464423,-0.27638993,-0.8689118,-0.58365583,0.99998575,0.6251384,0.6548807,-0.96318454,-0.83777386,-0.9997007,0.9984721,0.999198,0.6749708,-0.31255427,-0.9297095,-0.9982299,-0.9791546,-0.99558437,-0.917432,0.7467491,-0.6787107,-0.96106505,-0.75401413,-0.96965575,0.9366851,-0.8978362,0.9545861,-0.9241306,0.97733253,0.4846169,0.99777573,0.8824384,-0.84549695,-0.20249383,0.85942423,0.99996454,0.014360288,-0.91471153,0.37234548,-0.8645022,-0.9922932,0.6790632,-0.043790035,0.16941592,-0.9961777,0.23439807,0.7632617,0.24705605,0.70658857,-0.9889986,0.18108016,-0.118313886,-0.9981687,0.9906161,0.99997884,-0.97772086,0.87079656,0.970956,0.9829761,-0.96208125,-0.67827386,0.86024976,0.6727161,-0.8727227,-0.78136176,-0.9993165,-0.49645138,0.98666954,-0.66139954,-0.9908507,-0.0069755455,-0.9415226,0.56744504,-0.791286,0.8771039,0.91033673,-0.9532007,-0.77321655,0.54031456,-0.018290684,-0.99076736,-0.9414721,0.9855105,0.80938303,0.8270053,0.951699,0.1333601,-0.21992153,-0.99491906,-0.8603377,-0.9998889,-0.992631,-0.88693154,-0.7825936,0.9073385,0.8789839,0.8818769,0.51406497,-0.9960358,-0.45966014,0.91314936,0.7606969,0.9096522,-0.06427709,-0.9799987,-0.9381103,0.98592955,0.96292984,0.99941814,-0.69045824,0.8032296,0.853381,-0.9991881,0.99952954,0.779831,0.75275826,0.9854655,0.22056879,0.4006551,0.72187203,-0.9999949,-0.8194563,0.8611158,-0.0011096367,0.18900353,-0.99998313,-0.8769072,0.99996144,-0.2875021,0.30079532,0.99960023,-0.9999713,0.92449933,0.37746075,-0.99906194,-0.25387576,-0.9721255,0.9974953,0.62445796,-0.99824506,0.9992491,-0.8974814,-0.9033359,0.9946934,0.86703515,0.9832141,-0.43202543,-0.9955172,-0.34191504,0.6779675,0.041377418
